<?xml version="1.0"?>
<MethodSetup Method="BDT::BDT">
  <GeneralInfo>
    <Info name="TMVA Release" value="4.2.1 [262657]"/>
    <Info name="ROOT Release" value="6.12/07 [396295]"/>
    <Info name="Creator" value="wvetens"/>
    <Info name="Date" value="Mon Jun 19 11:37:04 2023"/>
    <Info name="Host" value="Linux cmsbuild10.cern.ch 3.10.0-1062.4.3.el7.x86_64 #1 SMP Wed Nov 13 23:58:53 UTC 2019 x86_64 x86_64 x86_64 GNU/Linux"/>
    <Info name="Dir" value="/afs/cern.ch/work/w/wvetens/Sexaquarks/CMSSW_10_2_26/src/SexaQAnalysis/TMVA/Step1"/>
    <Info name="Training events" value="128014"/>
    <Info name="TrainingTime" value="4.37795050e+01"/>
    <Info name="AnalysisType" value="Classification"/>
  </GeneralInfo>
  <Options>
    <Option name="V" modified="Yes">False</Option>
    <Option name="VerbosityLevel" modified="No">Default</Option>
    <Option name="VarTransform" modified="Yes">None</Option>
    <Option name="H" modified="Yes">True</Option>
    <Option name="CreateMVAPdfs" modified="No">False</Option>
    <Option name="IgnoreNegWeightsInTraining" modified="No">False</Option>
    <Option name="NTrees" modified="Yes">400</Option>
    <Option name="MaxDepth" modified="No">3</Option>
    <Option name="MinNodeSize" modified="No">5%</Option>
    <Option name="nCuts" modified="Yes">20</Option>
    <Option name="BoostType" modified="Yes">AdaBoost</Option>
    <Option name="AdaBoostR2Loss" modified="No">quadratic</Option>
    <Option name="UseBaggedBoost" modified="Yes">True</Option>
    <Option name="Shrinkage" modified="No">1.000000e+00</Option>
    <Option name="AdaBoostBeta" modified="No">5.000000e-01</Option>
    <Option name="UseRandomisedTrees" modified="No">False</Option>
    <Option name="UseNvars" modified="No">5</Option>
    <Option name="UsePoissonNvars" modified="No">True</Option>
    <Option name="BaggedSampleFraction" modified="No">6.000000e-01</Option>
    <Option name="UseYesNoLeaf" modified="No">True</Option>
    <Option name="NegWeightTreatment" modified="No">inverseboostnegweights</Option>
    <Option name="Css" modified="No">1.000000e+00</Option>
    <Option name="Cts_sb" modified="No">1.000000e+00</Option>
    <Option name="Ctb_ss" modified="No">1.000000e+00</Option>
    <Option name="Cbb" modified="No">1.000000e+00</Option>
    <Option name="NodePurityLimit" modified="No">5.000000e-01</Option>
    <Option name="SeparationType" modified="Yes">giniindex</Option>
    <Option name="RegressionLossFunctionBDTG" modified="No">huber</Option>
    <Option name="HuberQuantile" modified="No">7.000000e-01</Option>
    <Option name="DoBoostMonitor" modified="No">False</Option>
    <Option name="UseFisherCuts" modified="No">False</Option>
    <Option name="MinLinCorrForFisher" modified="No">8.000000e-01</Option>
    <Option name="UseExclusiveVars" modified="No">False</Option>
    <Option name="DoPreselection" modified="No">False</Option>
    <Option name="SigToBkgFraction" modified="No">1.000000e+00</Option>
    <Option name="PruneMethod" modified="Yes">costcomplexity</Option>
    <Option name="PruneStrength" modified="Yes">1.200000e+01</Option>
    <Option name="PruningValFraction" modified="No">5.000000e-01</Option>
    <Option name="SkipNormalization" modified="No">False</Option>
    <Option name="nEventsMin" modified="No">0</Option>
    <Option name="UseBaggedGrad" modified="No">False</Option>
    <Option name="GradBaggingFraction" modified="No">6.000000e-01</Option>
    <Option name="UseNTrainEvents" modified="No">0</Option>
    <Option name="NNodesMax" modified="No">0</Option>
  </Options>
  <Variables NVar="22">
    <Variable VarIndex="0" Expression="_S_vz_interaction_vertex" Label="_S_vz_interaction_vertex" Title="_S_vz_interaction_vertex" Unit="" Internal="_S_vz_interaction_vertex" Type="F" Min="-2.79741173e+01" Max="2.79656658e+01"/>
    <Variable VarIndex="1" Expression="_S_lxy_interaction_vertex_beampipeCenter" Label="_S_lxy_interaction_vertex_beampipeCenter" Title="_S_lxy_interaction_vertex_beampipeCenter" Unit="" Internal="_S_lxy_interaction_vertex_beampipeCenter" Type="F" Min="2.02000141e+00" Max="2.39998102e+00"/>
    <Variable VarIndex="2" Expression="_S_daughters_deltaphi" Label="_S_daughters_deltaphi" Title="_S_daughters_deltaphi" Unit="" Internal="_S_daughters_deltaphi" Type="F" Min="-3.14159226e+00" Max="3.14159226e+00"/>
    <Variable VarIndex="3" Expression="_S_daughters_deltaeta" Label="_S_daughters_deltaeta" Title="_S_daughters_deltaeta" Unit="" Internal="_S_daughters_deltaeta" Type="F" Min="-1.99997282e+00" Max="1.99999714e+00"/>
    <Variable VarIndex="4" Expression="_S_daughters_openingsangle" Label="_S_daughters_openingsangle" Title="_S_daughters_openingsangle" Unit="" Internal="_S_daughters_openingsangle" Type="F" Min="4.00021464e-01" Max="1.99995267e+00"/>
    <Variable VarIndex="5" Expression="_S_daughters_DeltaR" Label="_S_daughters_DeltaR" Title="_S_daughters_DeltaR" Unit="" Internal="_S_daughters_DeltaR" Type="F" Min="4.00492460e-01" Max="3.72045279e+00"/>
    <Variable VarIndex="6" Expression="_S_Ks_openingsangle" Label="_S_Ks_openingsangle" Title="_S_Ks_openingsangle" Unit="" Internal="_S_Ks_openingsangle" Type="F" Min="1.00187421e-01" Max="1.79996967e+00"/>
    <Variable VarIndex="7" Expression="_S_Lambda_openingsangle" Label="_S_Lambda_openingsangle" Title="_S_Lambda_openingsangle" Unit="" Internal="_S_Lambda_openingsangle" Type="F" Min="5.00013754e-02" Max="9.99990404e-01"/>
    <Variable VarIndex="8" Expression="_S_eta" Label="_S_eta" Title="_S_eta" Unit="" Internal="_S_eta" Type="F" Min="-3.49970365e+00" Max="3.41105914e+00"/>
    <Variable VarIndex="9" Expression="_Ks_eta" Label="_Ks_eta" Title="_Ks_eta" Unit="" Internal="_Ks_eta" Type="F" Min="-2.49878097e+00" Max="2.49913859e+00"/>
    <Variable VarIndex="10" Expression="_S_dxy_over_lxy" Label="_S_dxy_over_lxy" Title="_S_dxy_over_lxy" Unit="" Internal="_S_dxy_over_lxy" Type="F" Min="1.50171658e-07" Max="4.99989480e-01"/>
    <Variable VarIndex="11" Expression="_Ks_dxy_over_lxy" Label="_Ks_dxy_over_lxy" Title="_Ks_dxy_over_lxy" Unit="" Internal="_Ks_dxy_over_lxy" Type="F" Min="-1.00000000e+00" Max="1.00000000e+00"/>
    <Variable VarIndex="12" Expression="_Lambda_dxy_over_lxy" Label="_Lambda_dxy_over_lxy" Title="_Lambda_dxy_over_lxy" Unit="" Internal="_Lambda_dxy_over_lxy" Type="F" Min="-9.99999940e-01" Max="1.00000000e+00"/>
    <Variable VarIndex="13" Expression="_S_dz_min" Label="_S_dz_min" Title="_S_dz_min" Unit="" Internal="_S_dz_min" Type="F" Min="-5.99926329e+00" Max="5.99944639e+00"/>
    <Variable VarIndex="14" Expression="_Ks_dz_min" Label="_Ks_dz_min" Title="_Ks_dz_min" Unit="" Internal="_Ks_dz_min" Type="F" Min="-2.58807449e+01" Max="2.44477253e+01"/>
    <Variable VarIndex="15" Expression="_Lambda_dz_min" Label="_Lambda_dz_min" Title="_Lambda_dz_min" Unit="" Internal="_Lambda_dz_min" Type="F" Min="-2.58834572e+01" Max="2.59946480e+01"/>
    <Variable VarIndex="16" Expression="_Ks_pt" Label="_Ks_pt" Title="_Ks_pt" Unit="" Internal="_Ks_pt" Type="F" Min="8.00002158e-01" Max="3.10657387e+01"/>
    <Variable VarIndex="17" Expression="_Lambda_lxy_decay_vertex" Label="_Lambda_lxy_decay_vertex" Title="_Lambda_lxy_decay_vertex" Unit="" Internal="_Lambda_lxy_decay_vertex" Type="F" Min="1.96412086e-01" Max="4.44881172e+01"/>
    <Variable VarIndex="18" Expression="_GEN_S_mass" Label="_GEN_S_mass" Title="_GEN_S_mass" Unit="" Internal="_GEN_S_mass" Type="F" Min="1.70000005e+00" Max="2.00000000e+00"/>
    <Variable VarIndex="19" Expression="_S_mass" Label="_S_mass" Title="_S_mass" Unit="" Internal="_S_mass" Type="F" Min="-5.99440718e+00" Max="3.10671959e+01"/>
    <Variable VarIndex="20" Expression="_S_nGoodPVs" Label="_S_nGoodPVs" Title="_S_nGoodPVs" Unit="" Internal="_S_nGoodPVs" Type="F" Min="1.00000000e+00" Max="1.10000000e+02"/>
    <Variable VarIndex="21" Expression="_S_chi2_ndof" Label="_S_chi2_ndof" Title="_S_chi2_ndof" Unit="" Internal="_S_chi2_ndof" Type="F" Min="4.07130329e-10" Max="9.99974823e+00"/>
  </Variables>
  <Spectators NSpec="0"/>
  <Classes NClass="2">
    <Class Name="Signal" Index="0"/>
    <Class Name="Background" Index="1"/>
  </Classes>
  <Transformations NTransformations="0"/>
  <MVAPdfs/>
  <Weights NTrees="400" AnalysisType="0">
    <BinaryTree type="DecisionTree" boostWeight="1.1798319788178662e+00" itree="0">
      <Node pos="s" depth="0" NCoef="0" IVar="12" Cut="1.4285716414451599e-01" cType="0" res="-9.9000000000000000e+01" rms="0.0000000000000000e+00" purity="5.0063651800155640e-01" nType="0">
        <Node pos="l" depth="1" NCoef="0" IVar="10" Cut="1.9049245119094849e-01" cType="1" res="-9.9000000000000000e+01" rms="0.0000000000000000e+00" purity="8.2397514581680298e-01" nType="0">
          <Node pos="l" depth="2" NCoef="0" IVar="-1" Cut="0.0000000000000000e+00" cType="1" res="-9.9000000000000000e+01" rms="0.0000000000000000e+00" purity="9.5032978057861328e-01" nType="1"/>
          <Node pos="r" depth="2" NCoef="0" IVar="-1" Cut="0.0000000000000000e+00" cType="1" res="-9.9000000000000000e+01" rms="0.0000000000000000e+00" purity="1.5489381551742554e-01" nType="-1"/>
        </Node>
        <Node pos="r" depth="1" NCoef="0" IVar="16" Cut="2.1001708507537842e+00" cType="0" res="-9.9000000000000000e+01" rms="0.0000000000000000e+00" purity="2.0786283910274506e-01" nType="0">
          <Node pos="l" depth="2" NCoef="0" IVar="-1" Cut="0.0000000000000000e+00" cType="1" res="-9.9000000000000000e+01" rms="0.0000000000000000e+00" purity="7.3034971952438354e-01" nType="1"/>
          <Node pos="r" depth="2" NCoef="0" IVar="-1" Cut="3.4055761992931366e-02" cType="0" res="-9.9000000000000000e+01" rms="0.0000000000000000e+00" purity="5.6415345519781113e-02" nType="-1"/>
        </Node>
      </Node>
    </BinaryTree>
    <BinaryTree type="DecisionTree" boostWeight="9.3102492501718492e-01" itree="1">
      <Node pos="s" depth="0" NCoef="0" IVar="12" Cut="2.3809762299060822e-01" cType="0" res="-9.9000000000000000e+01" rms="0.0000000000000000e+00" purity="4.8493531346321106e-01" nType="0">
        <Node pos="l" depth="1" NCoef="0" IVar="10" Cut="1.4288264513015747e-01" cType="1" res="-9.9000000000000000e+01" rms="0.0000000000000000e+00" purity="8.1668621301651001e-01" nType="0">
          <Node pos="l" depth="2" NCoef="0" IVar="-1" Cut="0.0000000000000000e+00" cType="1" res="-9.9000000000000000e+01" rms="0.0000000000000000e+00" purity="9.3474775552749634e-01" nType="1"/>
          <Node pos="r" depth="2" NCoef="0" IVar="-1" Cut="0.0000000000000000e+00" cType="1" res="-9.9000000000000000e+01" rms="0.0000000000000000e+00" purity="4.0708386898040771e-01" nType="-1"/>
        </Node>
        <Node pos="r" depth="1" NCoef="0" IVar="0" Cut="-6.8904342651367188e+00" cType="1" res="-9.9000000000000000e+01" rms="0.0000000000000000e+00" purity="2.4094109237194061e-01" nType="0">
          <Node pos="l" depth="2" NCoef="0" IVar="-1" Cut="0.0000000000000000e+00" cType="1" res="-9.9000000000000000e+01" rms="0.0000000000000000e+00" purity="7.2378528118133545e-01" nType="1"/>
          <Node pos="r" depth="2" NCoef="0" IVar="0" Cut="6.1621685028076172e+00" cType="0" res="-9.9000000000000000e+01" rms="0.0000000000000000e+00" purity="1.5702843666076660e-01" nType="0">
            <Node pos="l" depth="3" NCoef="0" IVar="-1" Cut="0.0000000000000000e+00" cType="1" res="-9.9000000000000000e+01" rms="0.0000000000000000e+00" purity="6.4258605241775513e-01" nType="1"/>
            <Node pos="r" depth="3" NCoef="0" IVar="-1" Cut="0.0000000000000000e+00" cType="1" res="-9.9000000000000000e+01" rms="0.0000000000000000e+00" purity="4.4962193816900253e-02" nType="-1"/>
          </Node>
        </Node>
      </Node>
    </BinaryTree>
    <BinaryTree type="DecisionTree" boostWeight="9.0268575587816879e-01" itree="2">
      <Node pos="s" depth="0" NCoef="0" IVar="12" Cut="1.4285759627819061e-01" cType="0" res="-9.9000000000000000e+01" rms="0.0000000000000000e+00" purity="4.8552435636520386e-01" nType="0">
        <Node pos="l" depth="1" NCoef="0" IVar="19" Cut="-1.4998602867126465e+00" cType="0" res="-9.9000000000000000e+01" rms="0.0000000000000000e+00" purity="7.6595789194107056e-01" nType="0">
          <Node pos="l" depth="2" NCoef="0" IVar="-1" Cut="2.1420736610889435e-01" cType="1" res="-9.9000000000000000e+01" rms="0.0000000000000000e+00" purity="8.6867862939834595e-01" nType="1"/>
          <Node pos="r" depth="2" NCoef="0" IVar="-1" Cut="0.0000000000000000e+00" cType="1" res="-9.9000000000000000e+01" rms="0.0000000000000000e+00" purity="2.2150747478008270e-01" nType="-1"/>
        </Node>
        <Node pos="r" depth="1" NCoef="0" IVar="10" Cut="1.4285320043563843e-01" cType="1" res="-9.9000000000000000e+01" rms="0.0000000000000000e+00" purity="2.2129130363464355e-01" nType="0">
          <Node pos="l" depth="2" NCoef="0" IVar="4" Cut="9.3379867076873779e-01" cType="1" res="-9.9000000000000000e+01" rms="0.0000000000000000e+00" purity="3.9963814616203308e-01" nType="0">
            <Node pos="l" depth="3" NCoef="0" IVar="-1" Cut="0.0000000000000000e+00" cType="1" res="-9.9000000000000000e+01" rms="0.0000000000000000e+00" purity="7.2580158710479736e-01" nType="1"/>
            <Node pos="r" depth="3" NCoef="0" IVar="-1" Cut="0.0000000000000000e+00" cType="1" res="-9.9000000000000000e+01" rms="0.0000000000000000e+00" purity="2.0247372984886169e-01" nType="-1"/>
          </Node>
          <Node pos="r" depth="2" NCoef="0" IVar="-1" Cut="2.5718786716461182e+00" cType="0" res="-9.9000000000000000e+01" rms="0.0000000000000000e+00" purity="4.6255331486463547e-02" nType="-1"/>
        </Node>
      </Node>
    </BinaryTree>
    <BinaryTree type="DecisionTree" boostWeight="7.2286717151424928e-01" itree="3">
      <Node pos="s" depth="0" NCoef="0" IVar="10" Cut="9.5229700207710266e-02" cType="1" res="-9.9000000000000000e+01" rms="0.0000000000000000e+00" purity="4.6932700276374817e-01" nType="0">
        <Node pos="l" depth="1" NCoef="0" IVar="5" Cut="3.0875461101531982e+00" cType="1" res="-9.9000000000000000e+01" rms="0.0000000000000000e+00" purity="6.8070513010025024e-01" nType="0">
          <Node pos="l" depth="2" NCoef="0" IVar="-1" Cut="3.3333680033683777e-01" cType="0" res="-9.9000000000000000e+01" rms="0.0000000000000000e+00" purity="8.2710027694702148e-01" nType="1"/>
          <Node pos="r" depth="2" NCoef="0" IVar="12" Cut="1.2707187794148922e-02" cType="0" res="-9.9000000000000000e+01" rms="0.0000000000000000e+00" purity="3.3411234617233276e-01" nType="0">
            <Node pos="l" depth="3" NCoef="0" IVar="-1" Cut="0.0000000000000000e+00" cType="1" res="-9.9000000000000000e+01" rms="0.0000000000000000e+00" purity="6.2768542766571045e-01" nType="1"/>
            <Node pos="r" depth="3" NCoef="0" IVar="-1" Cut="0.0000000000000000e+00" cType="1" res="-9.9000000000000000e+01" rms="0.0000000000000000e+00" purity="9.5980517566204071e-02" nType="-1"/>
          </Node>
        </Node>
        <Node pos="r" depth="1" NCoef="0" IVar="12" Cut="3.3333495259284973e-01" cType="0" res="-9.9000000000000000e+01" rms="0.0000000000000000e+00" purity="2.3615290224552155e-01" nType="0">
          <Node pos="l" depth="2" NCoef="0" IVar="12" Cut="5.8732050657272339e-01" cType="0" res="-9.9000000000000000e+01" rms="0.0000000000000000e+00" purity="5.2092450857162476e-01" nType="0">
            <Node pos="l" depth="3" NCoef="0" IVar="-1" Cut="0.0000000000000000e+00" cType="1" res="-9.9000000000000000e+01" rms="0.0000000000000000e+00" purity="6.2721180915832520e-01" nType="1"/>
            <Node pos="r" depth="3" NCoef="0" IVar="-1" Cut="0.0000000000000000e+00" cType="1" res="-9.9000000000000000e+01" rms="0.0000000000000000e+00" purity="3.9864462614059448e-01" nType="-1"/>
          </Node>
          <Node pos="r" depth="2" NCoef="0" IVar="-1" Cut="2.5837757587432861e+00" cType="0" res="-9.9000000000000000e+01" rms="0.0000000000000000e+00" purity="1.1233376711606979e-01" nType="-1"/>
        </Node>
      </Node>
    </BinaryTree>
    <BinaryTree type="DecisionTree" boostWeight="7.0952041654553499e-01" itree="4">
      <Node pos="s" depth="0" NCoef="0" IVar="12" Cut="3.3333352208137512e-01" cType="0" res="-9.9000000000000000e+01" rms="0.0000000000000000e+00" purity="4.6886789798736572e-01" nType="0">
        <Node pos="l" depth="1" NCoef="0" IVar="5" Cut="1.9272447824478149e+00" cType="0" res="-9.9000000000000000e+01" rms="0.0000000000000000e+00" purity="7.2219967842102051e-01" nType="0">
          <Node pos="l" depth="2" NCoef="0" IVar="-1" Cut="0.0000000000000000e+00" cType="1" res="-9.9000000000000000e+01" rms="0.0000000000000000e+00" purity="8.6514079570770264e-01" nType="1"/>
          <Node pos="r" depth="2" NCoef="0" IVar="-1" Cut="0.0000000000000000e+00" cType="1" res="-9.9000000000000000e+01" rms="0.0000000000000000e+00" purity="3.0775392055511475e-01" nType="-1"/>
        </Node>
        <Node pos="r" depth="1" NCoef="0" IVar="19" Cut="8.3762601017951965e-02" cType="0" res="-9.9000000000000000e+01" rms="0.0000000000000000e+00" purity="3.0813711881637573e-01" nType="0">
          <Node pos="l" depth="2" NCoef="0" IVar="4" Cut="1.0203301906585693e+00" cType="1" res="-9.9000000000000000e+01" rms="0.0000000000000000e+00" purity="4.1718831658363342e-01" nType="0">
            <Node pos="l" depth="3" NCoef="0" IVar="-1" Cut="0.0000000000000000e+00" cType="1" res="-9.9000000000000000e+01" rms="0.0000000000000000e+00" purity="7.5031620264053345e-01" nType="1"/>
            <Node pos="r" depth="3" NCoef="0" IVar="-1" Cut="0.0000000000000000e+00" cType="1" res="-9.9000000000000000e+01" rms="0.0000000000000000e+00" purity="2.7050045132637024e-01" nType="-1"/>
          </Node>
          <Node pos="r" depth="2" NCoef="0" IVar="-1" Cut="1.1323517560958862e+00" cType="0" res="-9.9000000000000000e+01" rms="0.0000000000000000e+00" purity="8.0913193523883820e-02" nType="-1"/>
        </Node>
      </Node>
    </BinaryTree>
    <BinaryTree type="DecisionTree" boostWeight="6.1228970997425358e-01" itree="5">
      <Node pos="s" depth="0" NCoef="0" IVar="10" Cut="2.3809212446212769e-01" cType="1" res="-9.9000000000000000e+01" rms="0.0000000000000000e+00" purity="4.9514910578727722e-01" nType="0">
        <Node pos="l" depth="1" NCoef="0" IVar="21" Cut="2.8570709228515625e+00" cType="1" res="-9.9000000000000000e+01" rms="0.0000000000000000e+00" purity="5.9052759408950806e-01" nType="0">
          <Node pos="l" depth="2" NCoef="0" IVar="1" Cut="2.1285543441772461e+00" cType="0" res="-9.9000000000000000e+01" rms="0.0000000000000000e+00" purity="6.9970005750656128e-01" nType="0">
            <Node pos="l" depth="3" NCoef="0" IVar="-1" Cut="0.0000000000000000e+00" cType="1" res="-9.9000000000000000e+01" rms="0.0000000000000000e+00" purity="7.6860606670379639e-01" nType="1"/>
            <Node pos="r" depth="3" NCoef="0" IVar="-1" Cut="0.0000000000000000e+00" cType="1" res="-9.9000000000000000e+01" rms="0.0000000000000000e+00" purity="2.6665481925010681e-01" nType="-1"/>
          </Node>
          <Node pos="r" depth="2" NCoef="0" IVar="20" Cut="1.9952381134033203e+01" cType="1" res="-9.9000000000000000e+01" rms="0.0000000000000000e+00" purity="2.9490250349044800e-01" nType="0">
            <Node pos="l" depth="3" NCoef="0" IVar="-1" Cut="0.0000000000000000e+00" cType="1" res="-9.9000000000000000e+01" rms="0.0000000000000000e+00" purity="5.4845905303955078e-01" nType="1"/>
            <Node pos="r" depth="3" NCoef="0" IVar="-1" Cut="0.0000000000000000e+00" cType="1" res="-9.9000000000000000e+01" rms="0.0000000000000000e+00" purity="1.8249510228633881e-01" nType="-1"/>
          </Node>
        </Node>
        <Node pos="r" depth="1" NCoef="0" IVar="2" Cut="-2.2425224781036377e+00" cType="1" res="-9.9000000000000000e+01" rms="0.0000000000000000e+00" purity="1.8429079651832581e-01" nType="0">
          <Node pos="l" depth="2" NCoef="0" IVar="-1" Cut="0.0000000000000000e+00" cType="1" res="-9.9000000000000000e+01" rms="0.0000000000000000e+00" purity="5.2602922916412354e-01" nType="1"/>
          <Node pos="r" depth="2" NCoef="0" IVar="-1" Cut="1.4285790920257568e-01" cType="0" res="-9.9000000000000000e+01" rms="0.0000000000000000e+00" purity="7.9357981681823730e-02" nType="-1"/>
        </Node>
      </Node>
    </BinaryTree>
    <BinaryTree type="DecisionTree" boostWeight="7.0339709579426868e-01" itree="6">
      <Node pos="s" depth="0" NCoef="0" IVar="16" Cut="1.9565949440002441e+00" cType="0" res="-9.9000000000000000e+01" rms="0.0000000000000000e+00" purity="4.5267319679260254e-01" nType="0">
        <Node pos="l" depth="1" NCoef="0" IVar="4" Cut="1.1618522405624390e+00" cType="1" res="-9.9000000000000000e+01" rms="0.0000000000000000e+00" purity="7.0601880550384521e-01" nType="0">
          <Node pos="l" depth="2" NCoef="0" IVar="-1" Cut="0.0000000000000000e+00" cType="1" res="-9.9000000000000000e+01" rms="0.0000000000000000e+00" purity="7.9743152856826782e-01" nType="1"/>
          <Node pos="r" depth="2" NCoef="0" IVar="-1" Cut="0.0000000000000000e+00" cType="1" res="-9.9000000000000000e+01" rms="0.0000000000000000e+00" purity="2.3072028160095215e-01" nType="-1"/>
        </Node>
        <Node pos="r" depth="1" NCoef="0" IVar="19" Cut="4.6269071102142334e-01" cType="0" res="-9.9000000000000000e+01" rms="0.0000000000000000e+00" purity="3.0630353093147278e-01" nType="0">
          <Node pos="l" depth="2" NCoef="0" IVar="12" Cut="4.5102227479219437e-02" cType="0" res="-9.9000000000000000e+01" rms="0.0000000000000000e+00" purity="4.4856479763984680e-01" nType="0">
            <Node pos="l" depth="3" NCoef="0" IVar="-1" Cut="0.0000000000000000e+00" cType="1" res="-9.9000000000000000e+01" rms="0.0000000000000000e+00" purity="6.5890103578567505e-01" nType="1"/>
            <Node pos="r" depth="3" NCoef="0" IVar="-1" Cut="0.0000000000000000e+00" cType="1" res="-9.9000000000000000e+01" rms="0.0000000000000000e+00" purity="1.7106825113296509e-01" nType="-1"/>
          </Node>
          <Node pos="r" depth="2" NCoef="0" IVar="-1" Cut="2.3609726130962372e-01" cType="0" res="-9.9000000000000000e+01" rms="0.0000000000000000e+00" purity="5.4261788725852966e-02" nType="-1"/>
        </Node>
      </Node>
    </BinaryTree>
    <BinaryTree type="DecisionTree" boostWeight="5.6483299005896115e-01" itree="7">
      <Node pos="s" depth="0" NCoef="0" IVar="10" Cut="2.3808830976486206e-01" cType="1" res="-9.9000000000000000e+01" rms="0.0000000000000000e+00" purity="4.3039166927337646e-01" nType="0">
        <Node pos="l" depth="1" NCoef="0" IVar="12" Cut="4.2857125401496887e-01" cType="0" res="-9.9000000000000000e+01" rms="0.0000000000000000e+00" purity="5.2191299200057983e-01" nType="0">
          <Node pos="l" depth="2" NCoef="0" IVar="-1" Cut="0.0000000000000000e+00" cType="1" res="-9.9000000000000000e+01" rms="0.0000000000000000e+00" purity="7.7480512857437134e-01" nType="1"/>
          <Node pos="r" depth="2" NCoef="0" IVar="14" Cut="5.4792696237564087e-01" cType="0" res="-9.9000000000000000e+01" rms="0.0000000000000000e+00" purity="4.0314120054244995e-01" nType="0">
            <Node pos="l" depth="3" NCoef="0" IVar="-1" Cut="0.0000000000000000e+00" cType="1" res="-9.9000000000000000e+01" rms="0.0000000000000000e+00" purity="7.0058393478393555e-01" nType="1"/>
            <Node pos="r" depth="3" NCoef="0" IVar="-1" Cut="0.0000000000000000e+00" cType="1" res="-9.9000000000000000e+01" rms="0.0000000000000000e+00" purity="3.1386038661003113e-01" nType="-1"/>
          </Node>
        </Node>
        <Node pos="r" depth="1" NCoef="0" IVar="-1" Cut="2.5896079540252686e+00" cType="0" res="-9.9000000000000000e+01" rms="0.0000000000000000e+00" purity="1.0577207803726196e-01" nType="-1"/>
      </Node>
    </BinaryTree>
    <BinaryTree type="DecisionTree" boostWeight="6.7561260899145192e-01" itree="8">
      <Node pos="s" depth="0" NCoef="0" IVar="10" Cut="7.1426600217819214e-02" cType="1" res="-9.9000000000000000e+01" rms="0.0000000000000000e+00" purity="4.6419852972030640e-01" nType="0">
        <Node pos="l" depth="1" NCoef="0" IVar="5" Cut="3.0903036594390869e+00" cType="1" res="-9.9000000000000000e+01" rms="0.0000000000000000e+00" purity="6.6357767581939697e-01" nType="0">
          <Node pos="l" depth="2" NCoef="0" IVar="-1" Cut="0.0000000000000000e+00" cType="1" res="-9.9000000000000000e+01" rms="0.0000000000000000e+00" purity="7.8040385246276855e-01" nType="1"/>
          <Node pos="r" depth="2" NCoef="0" IVar="11" Cut="-3.0734041705727577e-02" cType="1" res="-9.9000000000000000e+01" rms="0.0000000000000000e+00" purity="4.1170668601989746e-01" nType="0">
            <Node pos="l" depth="3" NCoef="0" IVar="-1" Cut="0.0000000000000000e+00" cType="1" res="-9.9000000000000000e+01" rms="0.0000000000000000e+00" purity="6.5344631671905518e-01" nType="1"/>
            <Node pos="r" depth="3" NCoef="0" IVar="-1" Cut="0.0000000000000000e+00" cType="1" res="-9.9000000000000000e+01" rms="0.0000000000000000e+00" purity="1.4618788659572601e-01" nType="-1"/>
          </Node>
        </Node>
        <Node pos="r" depth="1" NCoef="0" IVar="14" Cut="-1.6383993625640869e+00" cType="1" res="-9.9000000000000000e+01" rms="0.0000000000000000e+00" purity="3.0125439167022705e-01" nType="0">
          <Node pos="l" depth="2" NCoef="0" IVar="-1" Cut="0.0000000000000000e+00" cType="1" res="-9.9000000000000000e+01" rms="0.0000000000000000e+00" purity="7.2570538520812988e-01" nType="1"/>
          <Node pos="r" depth="2" NCoef="0" IVar="14" Cut="2.0698590278625488e+00" cType="0" res="-9.9000000000000000e+01" rms="0.0000000000000000e+00" purity="2.0238508284091949e-01" nType="0">
            <Node pos="l" depth="3" NCoef="0" IVar="-1" Cut="0.0000000000000000e+00" cType="1" res="-9.9000000000000000e+01" rms="0.0000000000000000e+00" purity="6.0148358345031738e-01" nType="1"/>
            <Node pos="r" depth="3" NCoef="0" IVar="-1" Cut="0.0000000000000000e+00" cType="1" res="-9.9000000000000000e+01" rms="0.0000000000000000e+00" purity="1.1405751109123230e-01" nType="-1"/>
          </Node>
        </Node>
      </Node>
    </BinaryTree>
    <BinaryTree type="DecisionTree" boostWeight="5.5089169595746934e-01" itree="9">
      <Node pos="s" depth="0" NCoef="0" IVar="21" Cut="1.9047023057937622e+00" cType="1" res="-9.9000000000000000e+01" rms="0.0000000000000000e+00" purity="4.2015749216079712e-01" nType="0">
        <Node pos="l" depth="1" NCoef="0" IVar="19" Cut="-1.2903519868850708e+00" cType="0" res="-9.9000000000000000e+01" rms="0.0000000000000000e+00" purity="5.5840969085693359e-01" nType="0">
          <Node pos="l" depth="2" NCoef="0" IVar="3" Cut="-1.2380682229995728e+00" cType="0" res="-9.9000000000000000e+01" rms="0.0000000000000000e+00" purity="6.4168816804885864e-01" nType="0">
            <Node pos="l" depth="3" NCoef="0" IVar="-1" Cut="0.0000000000000000e+00" cType="1" res="-9.9000000000000000e+01" rms="0.0000000000000000e+00" purity="7.0006746053695679e-01" nType="1"/>
            <Node pos="r" depth="3" NCoef="0" IVar="-1" Cut="0.0000000000000000e+00" cType="1" res="-9.9000000000000000e+01" rms="0.0000000000000000e+00" purity="2.0487909018993378e-01" nType="-1"/>
          </Node>
          <Node pos="r" depth="2" NCoef="0" IVar="-1" Cut="0.0000000000000000e+00" cType="1" res="-9.9000000000000000e+01" rms="0.0000000000000000e+00" purity="1.8929082155227661e-01" nType="-1"/>
        </Node>
        <Node pos="r" depth="1" NCoef="0" IVar="-1" Cut="2.1001994609832764e+00" cType="0" res="-9.9000000000000000e+01" rms="0.0000000000000000e+00" purity="2.1879638731479645e-01" nType="-1"/>
      </Node>
    </BinaryTree>
    <BinaryTree type="DecisionTree" boostWeight="5.7288187164254756e-01" itree="10">
      <Node pos="s" depth="0" NCoef="0" IVar="0" Cut="-6.6637239456176758e+00" cType="1" res="-9.9000000000000000e+01" rms="0.0000000000000000e+00" purity="4.4666805863380432e-01" nType="0">
        <Node pos="l" depth="1" NCoef="0" IVar="-1" Cut="0.0000000000000000e+00" cType="1" res="-9.9000000000000000e+01" rms="0.0000000000000000e+00" purity="7.7525526285171509e-01" nType="1"/>
        <Node pos="r" depth="1" NCoef="0" IVar="0" Cut="8.1775045394897461e+00" cType="0" res="-9.9000000000000000e+01" rms="0.0000000000000000e+00" purity="3.6285102367401123e-01" nType="0">
          <Node pos="l" depth="2" NCoef="0" IVar="-1" Cut="0.0000000000000000e+00" cType="1" res="-9.9000000000000000e+01" rms="0.0000000000000000e+00" purity="7.8866791725158691e-01" nType="1"/>
          <Node pos="r" depth="2" NCoef="0" IVar="-1" Cut="2.3809166625142097e-02" cType="1" res="-9.9000000000000000e+01" rms="0.0000000000000000e+00" purity="2.5419062376022339e-01" nType="-1"/>
        </Node>
      </Node>
    </BinaryTree>
    <BinaryTree type="DecisionTree" boostWeight="5.2603349558229495e-01" itree="11">
      <Node pos="s" depth="0" NCoef="0" IVar="16" Cut="1.9565949440002441e+00" cType="0" res="-9.9000000000000000e+01" rms="0.0000000000000000e+00" purity="4.4684612751007080e-01" nType="0">
        <Node pos="l" depth="1" NCoef="0" IVar="11" Cut="1.4285707473754883e-01" cType="0" res="-9.9000000000000000e+01" rms="0.0000000000000000e+00" purity="6.6007113456726074e-01" nType="0">
          <Node pos="l" depth="2" NCoef="0" IVar="-1" Cut="0.0000000000000000e+00" cType="1" res="-9.9000000000000000e+01" rms="0.0000000000000000e+00" purity="8.4892702102661133e-01" nType="1"/>
          <Node pos="r" depth="2" NCoef="0" IVar="-1" Cut="0.0000000000000000e+00" cType="1" res="-9.9000000000000000e+01" rms="0.0000000000000000e+00" purity="3.9441835880279541e-01" nType="-1"/>
        </Node>
        <Node pos="r" depth="1" NCoef="0" IVar="12" Cut="4.7292415052652359e-02" cType="0" res="-9.9000000000000000e+01" rms="0.0000000000000000e+00" purity="3.3762234449386597e-01" nType="0">
          <Node pos="l" depth="2" NCoef="0" IVar="19" Cut="6.2638503313064575e-01" cType="0" res="-9.9000000000000000e+01" rms="0.0000000000000000e+00" purity="4.7191405296325684e-01" nType="0">
            <Node pos="l" depth="3" NCoef="0" IVar="-1" Cut="0.0000000000000000e+00" cType="1" res="-9.9000000000000000e+01" rms="0.0000000000000000e+00" purity="5.8700180053710938e-01" nType="1"/>
            <Node pos="r" depth="3" NCoef="0" IVar="-1" Cut="0.0000000000000000e+00" cType="1" res="-9.9000000000000000e+01" rms="0.0000000000000000e+00" purity="2.0112097263336182e-01" nType="-1"/>
          </Node>
          <Node pos="r" depth="2" NCoef="0" IVar="-1" Cut="1.9190475463867188e+01" cType="1" res="-9.9000000000000000e+01" rms="0.0000000000000000e+00" purity="1.2089591473340988e-01" nType="-1"/>
        </Node>
      </Node>
    </BinaryTree>
    <BinaryTree type="DecisionTree" boostWeight="5.2909083392732981e-01" itree="12">
      <Node pos="s" depth="0" NCoef="0" IVar="20" Cut="2.8571428298950195e+01" cType="1" res="-9.9000000000000000e+01" rms="0.0000000000000000e+00" purity="4.5333421230316162e-01" nType="0">
        <Node pos="l" depth="1" NCoef="0" IVar="1" Cut="2.1104702949523926e+00" cType="0" res="-9.9000000000000000e+01" rms="0.0000000000000000e+00" purity="5.4507946968078613e-01" nType="0">
          <Node pos="l" depth="2" NCoef="0" IVar="1" Cut="2.2621159553527832e+00" cType="1" res="-9.9000000000000000e+01" rms="0.0000000000000000e+00" purity="6.0809040069580078e-01" nType="0">
            <Node pos="l" depth="3" NCoef="0" IVar="-1" Cut="0.0000000000000000e+00" cType="1" res="-9.9000000000000000e+01" rms="0.0000000000000000e+00" purity="7.1204060316085815e-01" nType="1"/>
            <Node pos="r" depth="3" NCoef="0" IVar="-1" Cut="0.0000000000000000e+00" cType="1" res="-9.9000000000000000e+01" rms="0.0000000000000000e+00" purity="3.1967893242835999e-01" nType="-1"/>
          </Node>
          <Node pos="r" depth="2" NCoef="0" IVar="-1" Cut="9.5741905272006989e-02" cType="1" res="-9.9000000000000000e+01" rms="0.0000000000000000e+00" purity="1.8665847182273865e-01" nType="-1"/>
        </Node>
        <Node pos="r" depth="1" NCoef="0" IVar="-1" Cut="4.7604314982891083e-02" cType="1" res="-9.9000000000000000e+01" rms="0.0000000000000000e+00" purity="1.9480963051319122e-01" nType="-1"/>
      </Node>
    </BinaryTree>
    <BinaryTree type="DecisionTree" boostWeight="4.9454940175778977e-01" itree="13">
      <Node pos="s" depth="0" NCoef="0" IVar="10" Cut="1.1904522776603699e-01" cType="1" res="-9.9000000000000000e+01" rms="0.0000000000000000e+00" purity="4.4223102927207947e-01" nType="0">
        <Node pos="l" depth="1" NCoef="0" IVar="13" Cut="-8.5500603914260864e-01" cType="0" res="-9.9000000000000000e+01" rms="0.0000000000000000e+00" purity="5.5111318826675415e-01" nType="0">
          <Node pos="l" depth="2" NCoef="0" IVar="1" Cut="2.1466636657714844e+00" cType="0" res="-9.9000000000000000e+01" rms="0.0000000000000000e+00" purity="6.1207938194274902e-01" nType="0">
            <Node pos="l" depth="3" NCoef="0" IVar="-1" Cut="0.0000000000000000e+00" cType="1" res="-9.9000000000000000e+01" rms="0.0000000000000000e+00" purity="6.8733549118041992e-01" nType="1"/>
            <Node pos="r" depth="3" NCoef="0" IVar="-1" Cut="0.0000000000000000e+00" cType="1" res="-9.9000000000000000e+01" rms="0.0000000000000000e+00" purity="2.7053591609001160e-01" nType="-1"/>
          </Node>
          <Node pos="r" depth="2" NCoef="0" IVar="-1" Cut="0.0000000000000000e+00" cType="1" res="-9.9000000000000000e+01" rms="0.0000000000000000e+00" purity="8.6582615971565247e-02" nType="-1"/>
        </Node>
        <Node pos="r" depth="1" NCoef="0" IVar="0" Cut="-6.3922448158264160e+00" cType="1" res="-9.9000000000000000e+01" rms="0.0000000000000000e+00" purity="2.6645898818969727e-01" nType="0">
          <Node pos="l" depth="2" NCoef="0" IVar="-1" Cut="0.0000000000000000e+00" cType="1" res="-9.9000000000000000e+01" rms="0.0000000000000000e+00" purity="5.2168643474578857e-01" nType="1"/>
          <Node pos="r" depth="2" NCoef="0" IVar="-1" Cut="6.6805434226989746e+00" cType="0" res="-9.9000000000000000e+01" rms="0.0000000000000000e+00" purity="1.9692729413509369e-01" nType="-1"/>
        </Node>
      </Node>
    </BinaryTree>
    <BinaryTree type="DecisionTree" boostWeight="3.9759662800104989e-01" itree="14">
      <Node pos="s" depth="0" NCoef="0" IVar="19" Cut="-1.4431518316268921e+00" cType="0" res="-9.9000000000000000e+01" rms="0.0000000000000000e+00" purity="4.3292602896690369e-01" nType="0">
        <Node pos="l" depth="1" NCoef="0" IVar="19" Cut="3.7583608627319336e+00" cType="1" res="-9.9000000000000000e+01" rms="0.0000000000000000e+00" purity="5.0369495153427124e-01" nType="0">
          <Node pos="l" depth="2" NCoef="0" IVar="16" Cut="2.0655791759490967e+00" cType="0" res="-9.9000000000000000e+01" rms="0.0000000000000000e+00" purity="5.6640428304672241e-01" nType="0">
            <Node pos="l" depth="3" NCoef="0" IVar="-1" Cut="0.0000000000000000e+00" cType="1" res="-9.9000000000000000e+01" rms="0.0000000000000000e+00" purity="8.1275033950805664e-01" nType="1"/>
            <Node pos="r" depth="3" NCoef="0" IVar="-1" Cut="0.0000000000000000e+00" cType="1" res="-9.9000000000000000e+01" rms="0.0000000000000000e+00" purity="4.6785911917686462e-01" nType="-1"/>
          </Node>
          <Node pos="r" depth="2" NCoef="0" IVar="-1" Cut="0.0000000000000000e+00" cType="1" res="-9.9000000000000000e+01" rms="0.0000000000000000e+00" purity="6.9941826164722443e-02" nType="-1"/>
        </Node>
        <Node pos="r" depth="1" NCoef="0" IVar="-1" Cut="1.4285933971405029e-01" cType="0" res="-9.9000000000000000e+01" rms="0.0000000000000000e+00" purity="1.8130756914615631e-01" nType="-1"/>
      </Node>
    </BinaryTree>
    <BinaryTree type="DecisionTree" boostWeight="5.3132171377834569e-01" itree="15">
      <Node pos="s" depth="0" NCoef="0" IVar="19" Cut="9.7268760204315186e-01" cType="0" res="-9.9000000000000000e+01" rms="0.0000000000000000e+00" purity="4.7997140884399414e-01" nType="0">
        <Node pos="l" depth="1" NCoef="0" IVar="4" Cut="1.4697571992874146e+00" cType="1" res="-9.9000000000000000e+01" rms="0.0000000000000000e+00" purity="5.7695543766021729e-01" nType="0">
          <Node pos="l" depth="2" NCoef="0" IVar="7" Cut="5.0279468297958374e-01" cType="1" res="-9.9000000000000000e+01" rms="0.0000000000000000e+00" purity="6.6676890850067139e-01" nType="0">
            <Node pos="l" depth="3" NCoef="0" IVar="-1" Cut="0.0000000000000000e+00" cType="1" res="-9.9000000000000000e+01" rms="0.0000000000000000e+00" purity="7.5632762908935547e-01" nType="1"/>
            <Node pos="r" depth="3" NCoef="0" IVar="-1" Cut="0.0000000000000000e+00" cType="1" res="-9.9000000000000000e+01" rms="0.0000000000000000e+00" purity="4.2837971448898315e-01" nType="-1"/>
          </Node>
          <Node pos="r" depth="2" NCoef="0" IVar="-1" Cut="3.0825481414794922e+00" cType="1" res="-9.9000000000000000e+01" rms="0.0000000000000000e+00" purity="2.3098281025886536e-01" nType="-1"/>
        </Node>
        <Node pos="r" depth="1" NCoef="0" IVar="16" Cut="1.3983030319213867e+00" cType="0" res="-9.9000000000000000e+01" rms="0.0000000000000000e+00" purity="2.7407321333885193e-01" nType="0">
          <Node pos="l" depth="2" NCoef="0" IVar="4" Cut="6.5952801704406738e-01" cType="1" res="-9.9000000000000000e+01" rms="0.0000000000000000e+00" purity="5.2284014225006104e-01" nType="0">
            <Node pos="l" depth="3" NCoef="0" IVar="-1" Cut="0.0000000000000000e+00" cType="1" res="-9.9000000000000000e+01" rms="0.0000000000000000e+00" purity="6.2389057874679565e-01" nType="1"/>
            <Node pos="r" depth="3" NCoef="0" IVar="-1" Cut="0.0000000000000000e+00" cType="1" res="-9.9000000000000000e+01" rms="0.0000000000000000e+00" purity="3.8110971450805664e-01" nType="-1"/>
          </Node>
          <Node pos="r" depth="2" NCoef="0" IVar="-1" Cut="1.1418212652206421e+00" cType="0" res="-9.9000000000000000e+01" rms="0.0000000000000000e+00" purity="4.8089660704135895e-02" nType="-1"/>
        </Node>
      </Node>
    </BinaryTree>
    <BinaryTree type="DecisionTree" boostWeight="4.2349344504373371e-01" itree="16">
      <Node pos="s" depth="0" NCoef="0" IVar="10" Cut="2.8570592403411865e-01" cType="1" res="-9.9000000000000000e+01" rms="0.0000000000000000e+00" purity="4.7684252262115479e-01" nType="0">
        <Node pos="l" depth="1" NCoef="0" IVar="19" Cut="-2.3627057075500488e+00" cType="0" res="-9.9000000000000000e+01" rms="0.0000000000000000e+00" purity="5.3392243385314941e-01" nType="0">
          <Node pos="l" depth="2" NCoef="0" IVar="19" Cut="4.0049381256103516e+00" cType="1" res="-9.9000000000000000e+01" rms="0.0000000000000000e+00" purity="5.8166927099227905e-01" nType="0">
            <Node pos="l" depth="3" NCoef="0" IVar="-1" Cut="0.0000000000000000e+00" cType="1" res="-9.9000000000000000e+01" rms="0.0000000000000000e+00" purity="6.2582379579544067e-01" nType="1"/>
            <Node pos="r" depth="3" NCoef="0" IVar="-1" Cut="0.0000000000000000e+00" cType="1" res="-9.9000000000000000e+01" rms="0.0000000000000000e+00" purity="9.2434905469417572e-02" nType="-1"/>
          </Node>
          <Node pos="r" depth="2" NCoef="0" IVar="-1" Cut="0.0000000000000000e+00" cType="1" res="-9.9000000000000000e+01" rms="0.0000000000000000e+00" purity="1.3491910696029663e-01" nType="-1"/>
        </Node>
        <Node pos="r" depth="1" NCoef="0" IVar="-1" Cut="1.4285695552825928e-01" cType="0" res="-9.9000000000000000e+01" rms="0.0000000000000000e+00" purity="1.3328084349632263e-01" nType="-1"/>
      </Node>
    </BinaryTree>
    <BinaryTree type="DecisionTree" boostWeight="3.0902424721838689e-01" itree="17">
      <Node pos="s" depth="0" NCoef="0" IVar="21" Cut="4.2855801582336426e+00" cType="1" res="-9.9000000000000000e+01" rms="0.0000000000000000e+00" purity="4.5421499013900757e-01" nType="0">
        <Node pos="l" depth="1" NCoef="0" IVar="20" Cut="1.8285715103149414e+01" cType="1" res="-9.9000000000000000e+01" rms="0.0000000000000000e+00" purity="5.1679795980453491e-01" nType="0">
          <Node pos="l" depth="2" NCoef="0" IVar="-1" Cut="2.7619764208793640e-01" cType="0" res="-9.9000000000000000e+01" rms="0.0000000000000000e+00" purity="7.0715099573135376e-01" nType="1"/>
          <Node pos="r" depth="2" NCoef="0" IVar="-1" Cut="2.2733073234558105e+00" cType="1" res="-9.9000000000000000e+01" rms="0.0000000000000000e+00" purity="4.3108284473419189e-01" nType="-1"/>
        </Node>
        <Node pos="r" depth="1" NCoef="0" IVar="-1" Cut="4.7623496502637863e-02" cType="0" res="-9.9000000000000000e+01" rms="0.0000000000000000e+00" purity="1.9014784693717957e-01" nType="-1"/>
      </Node>
    </BinaryTree>
    <BinaryTree type="DecisionTree" boostWeight="4.5311219480762355e-01" itree="18">
      <Node pos="s" depth="0" NCoef="0" IVar="0" Cut="6.6527800559997559e+00" cType="0" res="-9.9000000000000000e+01" rms="0.0000000000000000e+00" purity="4.6288055181503296e-01" nType="0">
        <Node pos="l" depth="1" NCoef="0" IVar="-1" Cut="0.0000000000000000e+00" cType="1" res="-9.9000000000000000e+01" rms="0.0000000000000000e+00" purity="7.1773022413253784e-01" nType="1"/>
        <Node pos="r" depth="1" NCoef="0" IVar="0" Cut="-4.8811907768249512e+00" cType="1" res="-9.9000000000000000e+01" rms="0.0000000000000000e+00" purity="4.0392208099365234e-01" nType="0">
          <Node pos="l" depth="2" NCoef="0" IVar="7" Cut="1.8508106470108032e-01" cType="0" res="-9.9000000000000000e+01" rms="0.0000000000000000e+00" purity="6.3086462020874023e-01" nType="0">
            <Node pos="l" depth="3" NCoef="0" IVar="-1" Cut="0.0000000000000000e+00" cType="1" res="-9.9000000000000000e+01" rms="0.0000000000000000e+00" purity="7.6031154394149780e-01" nType="1"/>
            <Node pos="r" depth="3" NCoef="0" IVar="-1" Cut="0.0000000000000000e+00" cType="1" res="-9.9000000000000000e+01" rms="0.0000000000000000e+00" purity="3.5003674030303955e-01" nType="-1"/>
          </Node>
          <Node pos="r" depth="2" NCoef="0" IVar="-1" Cut="2.8570289611816406e+00" cType="1" res="-9.9000000000000000e+01" rms="0.0000000000000000e+00" purity="2.9596373438835144e-01" nType="-1"/>
        </Node>
      </Node>
    </BinaryTree>
    <BinaryTree type="DecisionTree" boostWeight="3.5053578963746018e-01" itree="19">
      <Node pos="s" depth="0" NCoef="0" IVar="19" Cut="-1.8181581497192383e+00" cType="0" res="-9.9000000000000000e+01" rms="0.0000000000000000e+00" purity="5.0847709178924561e-01" nType="0">
        <Node pos="l" depth="1" NCoef="0" IVar="4" Cut="7.8149455785751343e-01" cType="1" res="-9.9000000000000000e+01" rms="0.0000000000000000e+00" purity="5.6246596574783325e-01" nType="0">
          <Node pos="l" depth="2" NCoef="0" IVar="-1" Cut="0.0000000000000000e+00" cType="1" res="-9.9000000000000000e+01" rms="0.0000000000000000e+00" purity="8.3800637722015381e-01" nType="1"/>
          <Node pos="r" depth="2" NCoef="0" IVar="19" Cut="2.9409828186035156e+00" cType="1" res="-9.9000000000000000e+01" rms="0.0000000000000000e+00" purity="5.0515747070312500e-01" nType="0">
            <Node pos="l" depth="3" NCoef="0" IVar="-1" Cut="0.0000000000000000e+00" cType="1" res="-9.9000000000000000e+01" rms="0.0000000000000000e+00" purity="5.6938958168029785e-01" nType="1"/>
            <Node pos="r" depth="3" NCoef="0" IVar="-1" Cut="0.0000000000000000e+00" cType="1" res="-9.9000000000000000e+01" rms="0.0000000000000000e+00" purity="2.2011987864971161e-01" nType="-1"/>
          </Node>
        </Node>
        <Node pos="r" depth="1" NCoef="0" IVar="-1" Cut="3.7239700555801392e-01" cType="1" res="-9.9000000000000000e+01" rms="0.0000000000000000e+00" purity="2.2121533751487732e-01" nType="-1"/>
      </Node>
    </BinaryTree>
    <BinaryTree type="DecisionTree" boostWeight="4.1842257748323730e-01" itree="20">
      <Node pos="s" depth="0" NCoef="0" IVar="1" Cut="2.3095078468322754e+00" cType="1" res="-9.9000000000000000e+01" rms="0.0000000000000000e+00" purity="4.9043726921081543e-01" nType="0">
        <Node pos="l" depth="1" NCoef="0" IVar="13" Cut="1.4278342723846436e+00" cType="1" res="-9.9000000000000000e+01" rms="0.0000000000000000e+00" purity="5.4716718196868896e-01" nType="0">
          <Node pos="l" depth="2" NCoef="0" IVar="10" Cut="2.6190179586410522e-01" cType="1" res="-9.9000000000000000e+01" rms="0.0000000000000000e+00" purity="5.8074754476547241e-01" nType="0">
            <Node pos="l" depth="3" NCoef="0" IVar="-1" Cut="0.0000000000000000e+00" cType="1" res="-9.9000000000000000e+01" rms="0.0000000000000000e+00" purity="6.3736444711685181e-01" nType="1"/>
            <Node pos="r" depth="3" NCoef="0" IVar="-1" Cut="0.0000000000000000e+00" cType="1" res="-9.9000000000000000e+01" rms="0.0000000000000000e+00" purity="2.7977520227432251e-01" nType="-1"/>
          </Node>
          <Node pos="r" depth="2" NCoef="0" IVar="-1" Cut="0.0000000000000000e+00" cType="1" res="-9.9000000000000000e+01" rms="0.0000000000000000e+00" purity="4.2395021766424179e-02" nType="-1"/>
        </Node>
        <Node pos="r" depth="1" NCoef="0" IVar="-1" Cut="2.2918949127197266e+00" cType="0" res="-9.9000000000000000e+01" rms="0.0000000000000000e+00" purity="1.1666779965162277e-01" nType="-1"/>
      </Node>
    </BinaryTree>
    <BinaryTree type="DecisionTree" boostWeight="4.4207651285480837e-01" itree="21">
      <Node pos="s" depth="0" NCoef="0" IVar="12" Cut="4.7619238495826721e-02" cType="0" res="-9.9000000000000000e+01" rms="0.0000000000000000e+00" purity="4.1895607113838196e-01" nType="0">
        <Node pos="l" depth="1" NCoef="0" IVar="17" Cut="8.7494115829467773e+00" cType="1" res="-9.9000000000000000e+01" rms="0.0000000000000000e+00" purity="5.1667791604995728e-01" nType="0">
          <Node pos="l" depth="2" NCoef="0" IVar="-1" Cut="0.0000000000000000e+00" cType="1" res="-9.9000000000000000e+01" rms="0.0000000000000000e+00" purity="6.9198572635650635e-01" nType="1"/>
          <Node pos="r" depth="2" NCoef="0" IVar="16" Cut="1.7899937629699707e+00" cType="0" res="-9.9000000000000000e+01" rms="0.0000000000000000e+00" purity="3.9981290698051453e-01" nType="0">
            <Node pos="l" depth="3" NCoef="0" IVar="-1" Cut="0.0000000000000000e+00" cType="1" res="-9.9000000000000000e+01" rms="0.0000000000000000e+00" purity="5.8349466323852539e-01" nType="1"/>
            <Node pos="r" depth="3" NCoef="0" IVar="-1" Cut="0.0000000000000000e+00" cType="1" res="-9.9000000000000000e+01" rms="0.0000000000000000e+00" purity="2.8090134263038635e-01" nType="-1"/>
          </Node>
        </Node>
        <Node pos="r" depth="1" NCoef="0" IVar="20" Cut="2.1857143402099609e+01" cType="1" res="-9.9000000000000000e+01" rms="0.0000000000000000e+00" purity="2.4514658749103546e-01" nType="0">
          <Node pos="l" depth="2" NCoef="0" IVar="21" Cut="1.9046036005020142e+00" cType="1" res="-9.9000000000000000e+01" rms="0.0000000000000000e+00" purity="4.0277868509292603e-01" nType="0">
            <Node pos="l" depth="3" NCoef="0" IVar="-1" Cut="0.0000000000000000e+00" cType="1" res="-9.9000000000000000e+01" rms="0.0000000000000000e+00" purity="5.1594978570938110e-01" nType="1"/>
            <Node pos="r" depth="3" NCoef="0" IVar="-1" Cut="0.0000000000000000e+00" cType="1" res="-9.9000000000000000e+01" rms="0.0000000000000000e+00" purity="2.2091771662235260e-01" nType="-1"/>
          </Node>
          <Node pos="r" depth="2" NCoef="0" IVar="-1" Cut="4.2549738287925720e-01" cType="1" res="-9.9000000000000000e+01" rms="0.0000000000000000e+00" purity="1.2053524702787399e-01" nType="-1"/>
        </Node>
      </Node>
    </BinaryTree>
    <BinaryTree type="DecisionTree" boostWeight="4.5751637176981630e-01" itree="22">
      <Node pos="s" depth="0" NCoef="0" IVar="3" Cut="1.2380981445312500e+00" cType="1" res="-9.9000000000000000e+01" rms="0.0000000000000000e+00" purity="4.4850739836692810e-01" nType="0">
        <Node pos="l" depth="1" NCoef="0" IVar="12" Cut="4.7618981450796127e-02" cType="0" res="-9.9000000000000000e+01" rms="0.0000000000000000e+00" purity="4.9973574280738831e-01" nType="0">
          <Node pos="l" depth="2" NCoef="0" IVar="19" Cut="1.6670755147933960e+00" cType="0" res="-9.9000000000000000e+01" rms="0.0000000000000000e+00" purity="5.9196162223815918e-01" nType="0">
            <Node pos="l" depth="3" NCoef="0" IVar="-1" Cut="0.0000000000000000e+00" cType="1" res="-9.9000000000000000e+01" rms="0.0000000000000000e+00" purity="7.4494481086730957e-01" nType="1"/>
            <Node pos="r" depth="3" NCoef="0" IVar="-1" Cut="0.0000000000000000e+00" cType="1" res="-9.9000000000000000e+01" rms="0.0000000000000000e+00" purity="3.9962747693061829e-01" nType="-1"/>
          </Node>
          <Node pos="r" depth="2" NCoef="0" IVar="16" Cut="2.0752406120300293e+00" cType="0" res="-9.9000000000000000e+01" rms="0.0000000000000000e+00" purity="3.2362392544746399e-01" nType="0">
            <Node pos="l" depth="3" NCoef="0" IVar="-1" Cut="0.0000000000000000e+00" cType="1" res="-9.9000000000000000e+01" rms="0.0000000000000000e+00" purity="5.4796308279037476e-01" nType="1"/>
            <Node pos="r" depth="3" NCoef="0" IVar="-1" Cut="0.0000000000000000e+00" cType="1" res="-9.9000000000000000e+01" rms="0.0000000000000000e+00" purity="2.2793020308017731e-01" nType="-1"/>
          </Node>
        </Node>
        <Node pos="r" depth="1" NCoef="0" IVar="-1" Cut="2.3809525370597839e-01" cType="0" res="-9.9000000000000000e+01" rms="0.0000000000000000e+00" purity="1.3311402499675751e-01" nType="-1"/>
      </Node>
    </BinaryTree>
    <BinaryTree type="DecisionTree" boostWeight="3.8177663473927870e-01" itree="23">
      <Node pos="s" depth="0" NCoef="0" IVar="14" Cut="-1.8430802822113037e+00" cType="1" res="-9.9000000000000000e+01" rms="0.0000000000000000e+00" purity="4.6419370174407959e-01" nType="0">
        <Node pos="l" depth="1" NCoef="0" IVar="-1" Cut="0.0000000000000000e+00" cType="1" res="-9.9000000000000000e+01" rms="0.0000000000000000e+00" purity="7.6050800085067749e-01" nType="1"/>
        <Node pos="r" depth="1" NCoef="0" IVar="12" Cut="4.7619074583053589e-02" cType="0" res="-9.9000000000000000e+01" rms="0.0000000000000000e+00" purity="4.0172004699707031e-01" nType="0">
          <Node pos="l" depth="2" NCoef="0" IVar="20" Cut="3.0666666030883789e+01" cType="1" res="-9.9000000000000000e+01" rms="0.0000000000000000e+00" purity="4.9067711830139160e-01" nType="0">
            <Node pos="l" depth="3" NCoef="0" IVar="-1" Cut="0.0000000000000000e+00" cType="1" res="-9.9000000000000000e+01" rms="0.0000000000000000e+00" purity="5.6135374307632446e-01" nType="1"/>
            <Node pos="r" depth="3" NCoef="0" IVar="-1" Cut="0.0000000000000000e+00" cType="1" res="-9.9000000000000000e+01" rms="0.0000000000000000e+00" purity="2.0049494504928589e-01" nType="-1"/>
          </Node>
          <Node pos="r" depth="2" NCoef="0" IVar="-1" Cut="4.8131008148193359e+00" cType="0" res="-9.9000000000000000e+01" rms="0.0000000000000000e+00" purity="2.1073427796363831e-01" nType="-1"/>
        </Node>
      </Node>
    </BinaryTree>
    <BinaryTree type="DecisionTree" boostWeight="4.6058820051962118e-01" itree="24">
      <Node pos="s" depth="0" NCoef="0" IVar="1" Cut="2.2552268505096436e+00" cType="1" res="-9.9000000000000000e+01" rms="0.0000000000000000e+00" purity="4.1827744245529175e-01" nType="0">
        <Node pos="l" depth="1" NCoef="0" IVar="1" Cut="2.1656146049499512e+00" cType="0" res="-9.9000000000000000e+01" rms="0.0000000000000000e+00" purity="4.8175093531608582e-01" nType="0">
          <Node pos="l" depth="2" NCoef="0" IVar="17" Cut="1.0736730575561523e+01" cType="1" res="-9.9000000000000000e+01" rms="0.0000000000000000e+00" purity="6.1015558242797852e-01" nType="0">
            <Node pos="l" depth="3" NCoef="0" IVar="-1" Cut="0.0000000000000000e+00" cType="1" res="-9.9000000000000000e+01" rms="0.0000000000000000e+00" purity="7.1530801057815552e-01" nType="1"/>
            <Node pos="r" depth="3" NCoef="0" IVar="-1" Cut="0.0000000000000000e+00" cType="1" res="-9.9000000000000000e+01" rms="0.0000000000000000e+00" purity="3.9212214946746826e-01" nType="-1"/>
          </Node>
          <Node pos="r" depth="2" NCoef="0" IVar="-1" Cut="-1.8104935884475708e+00" cType="1" res="-9.9000000000000000e+01" rms="0.0000000000000000e+00" purity="2.9400262236595154e-01" nType="-1"/>
        </Node>
        <Node pos="r" depth="1" NCoef="0" IVar="-1" Cut="1.7332030534744263e+00" cType="0" res="-9.9000000000000000e+01" rms="0.0000000000000000e+00" purity="2.0068839192390442e-01" nType="-1"/>
      </Node>
    </BinaryTree>
    <BinaryTree type="DecisionTree" boostWeight="3.6877999237616993e-01" itree="25">
      <Node pos="s" depth="0" NCoef="0" IVar="2" Cut="1.6455959081649780e+00" cType="0" res="-9.9000000000000000e+01" rms="0.0000000000000000e+00" purity="4.5523756742477417e-01" nType="0">
        <Node pos="l" depth="1" NCoef="0" IVar="12" Cut="4.7691047191619873e-02" cType="0" res="-9.9000000000000000e+01" rms="0.0000000000000000e+00" purity="6.2271422147750854e-01" nType="0">
          <Node pos="l" depth="2" NCoef="0" IVar="-1" Cut="0.0000000000000000e+00" cType="1" res="-9.9000000000000000e+01" rms="0.0000000000000000e+00" purity="7.5931370258331299e-01" nType="1"/>
          <Node pos="r" depth="2" NCoef="0" IVar="11" Cut="-9.9233075976371765e-02" cType="0" res="-9.9000000000000000e+01" rms="0.0000000000000000e+00" purity="4.5290085673332214e-01" nType="0">
            <Node pos="l" depth="3" NCoef="0" IVar="-1" Cut="0.0000000000000000e+00" cType="1" res="-9.9000000000000000e+01" rms="0.0000000000000000e+00" purity="5.4733729362487793e-01" nType="1"/>
            <Node pos="r" depth="3" NCoef="0" IVar="-1" Cut="0.0000000000000000e+00" cType="1" res="-9.9000000000000000e+01" rms="0.0000000000000000e+00" purity="2.6770886778831482e-01" nType="-1"/>
          </Node>
        </Node>
        <Node pos="r" depth="1" NCoef="0" IVar="21" Cut="3.3331620693206787e+00" cType="1" res="-9.9000000000000000e+01" rms="0.0000000000000000e+00" purity="3.6550652980804443e-01" nType="0">
          <Node pos="l" depth="2" NCoef="0" IVar="2" Cut="-1.3179244995117188e+00" cType="1" res="-9.9000000000000000e+01" rms="0.0000000000000000e+00" purity="4.3958422541618347e-01" nType="0">
            <Node pos="l" depth="3" NCoef="0" IVar="-1" Cut="0.0000000000000000e+00" cType="1" res="-9.9000000000000000e+01" rms="0.0000000000000000e+00" purity="5.3670752048492432e-01" nType="1"/>
            <Node pos="r" depth="3" NCoef="0" IVar="-1" Cut="0.0000000000000000e+00" cType="1" res="-9.9000000000000000e+01" rms="0.0000000000000000e+00" purity="2.8123739361763000e-01" nType="-1"/>
          </Node>
          <Node pos="r" depth="2" NCoef="0" IVar="-1" Cut="2.3238094329833984e+01" cType="1" res="-9.9000000000000000e+01" rms="0.0000000000000000e+00" purity="1.6361366212368011e-01" nType="-1"/>
        </Node>
      </Node>
    </BinaryTree>
    <BinaryTree type="DecisionTree" boostWeight="4.2704513517289960e-01" itree="26">
      <Node pos="s" depth="0" NCoef="0" IVar="3" Cut="-1.2380803823471069e+00" cType="0" res="-9.9000000000000000e+01" rms="0.0000000000000000e+00" purity="4.3684631586074829e-01" nType="0">
        <Node pos="l" depth="1" NCoef="0" IVar="12" Cut="2.3809723556041718e-01" cType="0" res="-9.9000000000000000e+01" rms="0.0000000000000000e+00" purity="4.7633260488510132e-01" nType="0">
          <Node pos="l" depth="2" NCoef="0" IVar="5" Cut="1.9182989597320557e+00" cType="0" res="-9.9000000000000000e+01" rms="0.0000000000000000e+00" purity="6.1913883686065674e-01" nType="0">
            <Node pos="l" depth="3" NCoef="0" IVar="-1" Cut="0.0000000000000000e+00" cType="1" res="-9.9000000000000000e+01" rms="0.0000000000000000e+00" purity="7.2205221652984619e-01" nType="1"/>
            <Node pos="r" depth="3" NCoef="0" IVar="-1" Cut="0.0000000000000000e+00" cType="1" res="-9.9000000000000000e+01" rms="0.0000000000000000e+00" purity="4.2128929495811462e-01" nType="-1"/>
          </Node>
          <Node pos="r" depth="2" NCoef="0" IVar="20" Cut="1.6142856597900391e+01" cType="1" res="-9.9000000000000000e+01" rms="0.0000000000000000e+00" purity="3.8391321897506714e-01" nType="0">
            <Node pos="l" depth="3" NCoef="0" IVar="-1" Cut="0.0000000000000000e+00" cType="1" res="-9.9000000000000000e+01" rms="0.0000000000000000e+00" purity="6.4781159162521362e-01" nType="1"/>
            <Node pos="r" depth="3" NCoef="0" IVar="-1" Cut="0.0000000000000000e+00" cType="1" res="-9.9000000000000000e+01" rms="0.0000000000000000e+00" purity="3.0242866277694702e-01" nType="-1"/>
          </Node>
        </Node>
        <Node pos="r" depth="1" NCoef="0" IVar="-1" Cut="1.4285723865032196e-01" cType="0" res="-9.9000000000000000e+01" rms="0.0000000000000000e+00" purity="1.4725925028324127e-01" nType="-1"/>
      </Node>
    </BinaryTree>
    <BinaryTree type="DecisionTree" boostWeight="2.9983879541241570e-01" itree="27">
      <Node pos="s" depth="0" NCoef="0" IVar="13" Cut="-8.5590189695358276e-01" cType="0" res="-9.9000000000000000e+01" rms="0.0000000000000000e+00" purity="4.7341859340667725e-01" nType="0">
        <Node pos="l" depth="1" NCoef="0" IVar="13" Cut="1.1028718948364258e+00" cType="1" res="-9.9000000000000000e+01" rms="0.0000000000000000e+00" purity="5.1155740022659302e-01" nType="0">
          <Node pos="l" depth="2" NCoef="0" IVar="8" Cut="-1.7593524456024170e+00" cType="1" res="-9.9000000000000000e+01" rms="0.0000000000000000e+00" purity="5.4920607805252075e-01" nType="0">
            <Node pos="l" depth="3" NCoef="0" IVar="-1" Cut="0.0000000000000000e+00" cType="1" res="-9.9000000000000000e+01" rms="0.0000000000000000e+00" purity="7.4348026514053345e-01" nType="1"/>
            <Node pos="r" depth="3" NCoef="0" IVar="-1" Cut="0.0000000000000000e+00" cType="1" res="-9.9000000000000000e+01" rms="0.0000000000000000e+00" purity="4.6906334161758423e-01" nType="-1"/>
          </Node>
          <Node pos="r" depth="2" NCoef="0" IVar="-1" Cut="0.0000000000000000e+00" cType="1" res="-9.9000000000000000e+01" rms="0.0000000000000000e+00" purity="7.6078124344348907e-02" nType="-1"/>
        </Node>
        <Node pos="r" depth="1" NCoef="0" IVar="-1" Cut="0.0000000000000000e+00" cType="1" res="-9.9000000000000000e+01" rms="0.0000000000000000e+00" purity="9.1952607035636902e-02" nType="-1"/>
      </Node>
    </BinaryTree>
    <BinaryTree type="DecisionTree" boostWeight="3.5117085428566974e-01" itree="28">
      <Node pos="s" depth="0" NCoef="0" IVar="1" Cut="2.1285789012908936e+00" cType="0" res="-9.9000000000000000e+01" rms="0.0000000000000000e+00" purity="4.9141708016395569e-01" nType="0">
        <Node pos="l" depth="1" NCoef="0" IVar="13" Cut="-8.5511630773544312e-01" cType="0" res="-9.9000000000000000e+01" rms="0.0000000000000000e+00" purity="5.4433345794677734e-01" nType="0">
          <Node pos="l" depth="2" NCoef="0" IVar="13" Cut="7.7638161182403564e-01" cType="1" res="-9.9000000000000000e+01" rms="0.0000000000000000e+00" purity="5.8007496595382690e-01" nType="0">
            <Node pos="l" depth="3" NCoef="0" IVar="-1" Cut="0.0000000000000000e+00" cType="1" res="-9.9000000000000000e+01" rms="0.0000000000000000e+00" purity="6.1561524868011475e-01" nType="1"/>
            <Node pos="r" depth="3" NCoef="0" IVar="-1" Cut="0.0000000000000000e+00" cType="1" res="-9.9000000000000000e+01" rms="0.0000000000000000e+00" purity="2.1740879118442535e-01" nType="-1"/>
          </Node>
          <Node pos="r" depth="2" NCoef="0" IVar="-1" Cut="0.0000000000000000e+00" cType="1" res="-9.9000000000000000e+01" rms="0.0000000000000000e+00" purity="1.4147797226905823e-01" nType="-1"/>
        </Node>
        <Node pos="r" depth="1" NCoef="0" IVar="-1" Cut="1.0095285177230835e+00" cType="1" res="-9.9000000000000000e+01" rms="0.0000000000000000e+00" purity="2.3702712357044220e-01" nType="-1"/>
      </Node>
    </BinaryTree>
    <BinaryTree type="DecisionTree" boostWeight="2.5272857641982860e-01" itree="29">
      <Node pos="s" depth="0" NCoef="0" IVar="21" Cut="4.2856063842773438e+00" cType="1" res="-9.9000000000000000e+01" rms="0.0000000000000000e+00" purity="4.8065227270126343e-01" nType="0">
        <Node pos="l" depth="1" NCoef="0" IVar="3" Cut="1.2378574609756470e+00" cType="1" res="-9.9000000000000000e+01" rms="0.0000000000000000e+00" purity="5.3006321191787720e-01" nType="0">
          <Node pos="l" depth="2" NCoef="0" IVar="0" Cut="3.9289371967315674e+00" cType="0" res="-9.9000000000000000e+01" rms="0.0000000000000000e+00" purity="5.7133537530899048e-01" nType="0">
            <Node pos="l" depth="3" NCoef="0" IVar="-1" Cut="0.0000000000000000e+00" cType="1" res="-9.9000000000000000e+01" rms="0.0000000000000000e+00" purity="7.4456554651260376e-01" nType="1"/>
            <Node pos="r" depth="3" NCoef="0" IVar="-1" Cut="0.0000000000000000e+00" cType="1" res="-9.9000000000000000e+01" rms="0.0000000000000000e+00" purity="4.9890407919883728e-01" nType="-1"/>
          </Node>
          <Node pos="r" depth="2" NCoef="0" IVar="-1" Cut="0.0000000000000000e+00" cType="1" res="-9.9000000000000000e+01" rms="0.0000000000000000e+00" purity="2.2402168810367584e-01" nType="-1"/>
        </Node>
        <Node pos="r" depth="1" NCoef="0" IVar="-1" Cut="1.8111498355865479e+00" cType="0" res="-9.9000000000000000e+01" rms="0.0000000000000000e+00" purity="2.5327512621879578e-01" nType="-1"/>
      </Node>
    </BinaryTree>
    <BinaryTree type="DecisionTree" boostWeight="3.5768443497427427e-01" itree="30">
      <Node pos="s" depth="0" NCoef="0" IVar="19" Cut="3.4712760448455811e+00" cType="1" res="-9.9000000000000000e+01" rms="0.0000000000000000e+00" purity="4.9786880612373352e-01" nType="0">
        <Node pos="l" depth="1" NCoef="0" IVar="16" Cut="1.4435755014419556e+00" cType="0" res="-9.9000000000000000e+01" rms="0.0000000000000000e+00" purity="5.3018420934677124e-01" nType="0">
          <Node pos="l" depth="2" NCoef="0" IVar="10" Cut="1.1906865239143372e-01" cType="1" res="-9.9000000000000000e+01" rms="0.0000000000000000e+00" purity="6.7096889019012451e-01" nType="0">
            <Node pos="l" depth="3" NCoef="0" IVar="-1" Cut="0.0000000000000000e+00" cType="1" res="-9.9000000000000000e+01" rms="0.0000000000000000e+00" purity="7.7870678901672363e-01" nType="1"/>
            <Node pos="r" depth="3" NCoef="0" IVar="-1" Cut="0.0000000000000000e+00" cType="1" res="-9.9000000000000000e+01" rms="0.0000000000000000e+00" purity="4.8249858617782593e-01" nType="-1"/>
          </Node>
          <Node pos="r" depth="2" NCoef="0" IVar="18" Cut="1.8000000715255737e+00" cType="1" res="-9.9000000000000000e+01" rms="0.0000000000000000e+00" purity="4.0950500965118408e-01" nType="0">
            <Node pos="l" depth="3" NCoef="0" IVar="-1" Cut="0.0000000000000000e+00" cType="1" res="-9.9000000000000000e+01" rms="0.0000000000000000e+00" purity="5.4458963871002197e-01" nType="1"/>
            <Node pos="r" depth="3" NCoef="0" IVar="-1" Cut="0.0000000000000000e+00" cType="1" res="-9.9000000000000000e+01" rms="0.0000000000000000e+00" purity="2.8391164541244507e-01" nType="-1"/>
          </Node>
        </Node>
        <Node pos="r" depth="1" NCoef="0" IVar="-1" Cut="0.0000000000000000e+00" cType="1" res="-9.9000000000000000e+01" rms="0.0000000000000000e+00" purity="1.8275852501392365e-01" nType="-1"/>
      </Node>
    </BinaryTree>
    <BinaryTree type="DecisionTree" boostWeight="3.6737357029610823e-01" itree="31">
      <Node pos="s" depth="0" NCoef="0" IVar="1" Cut="2.2914094924926758e+00" cType="1" res="-9.9000000000000000e+01" rms="0.0000000000000000e+00" purity="4.8935475945472717e-01" nType="0">
        <Node pos="l" depth="1" NCoef="0" IVar="13" Cut="-8.5689109563827515e-01" cType="0" res="-9.9000000000000000e+01" rms="0.0000000000000000e+00" purity="5.3493785858154297e-01" nType="0">
          <Node pos="l" depth="2" NCoef="0" IVar="3" Cut="-1.0475119352340698e+00" cType="0" res="-9.9000000000000000e+01" rms="0.0000000000000000e+00" purity="5.7255697250366211e-01" nType="0">
            <Node pos="l" depth="3" NCoef="0" IVar="-1" Cut="0.0000000000000000e+00" cType="1" res="-9.9000000000000000e+01" rms="0.0000000000000000e+00" purity="6.2260746955871582e-01" nType="1"/>
            <Node pos="r" depth="3" NCoef="0" IVar="-1" Cut="0.0000000000000000e+00" cType="1" res="-9.9000000000000000e+01" rms="0.0000000000000000e+00" purity="2.6579874753952026e-01" nType="-1"/>
          </Node>
          <Node pos="r" depth="2" NCoef="0" IVar="-1" Cut="0.0000000000000000e+00" cType="1" res="-9.9000000000000000e+01" rms="0.0000000000000000e+00" purity="1.3714128732681274e-01" nType="-1"/>
        </Node>
        <Node pos="r" depth="1" NCoef="0" IVar="-1" Cut="8.5725492238998413e-01" cType="1" res="-9.9000000000000000e+01" rms="0.0000000000000000e+00" purity="2.1455217897891998e-01" nType="-1"/>
      </Node>
    </BinaryTree>
    <BinaryTree type="DecisionTree" boostWeight="2.8402887925964404e-01" itree="32">
      <Node pos="s" depth="0" NCoef="0" IVar="13" Cut="8.5714226961135864e-01" cType="1" res="-9.9000000000000000e+01" rms="0.0000000000000000e+00" purity="4.8026740550994873e-01" nType="0">
        <Node pos="l" depth="1" NCoef="0" IVar="13" Cut="-1.1018612384796143e+00" cType="0" res="-9.9000000000000000e+01" rms="0.0000000000000000e+00" purity="5.0897574424743652e-01" nType="0">
          <Node pos="l" depth="2" NCoef="0" IVar="3" Cut="8.5715448856353760e-01" cType="1" res="-9.9000000000000000e+01" rms="0.0000000000000000e+00" purity="5.3519517183303833e-01" nType="0">
            <Node pos="l" depth="3" NCoef="0" IVar="-1" Cut="0.0000000000000000e+00" cType="1" res="-9.9000000000000000e+01" rms="0.0000000000000000e+00" purity="5.8736228942871094e-01" nType="1"/>
            <Node pos="r" depth="3" NCoef="0" IVar="-1" Cut="0.0000000000000000e+00" cType="1" res="-9.9000000000000000e+01" rms="0.0000000000000000e+00" purity="3.4606239199638367e-01" nType="-1"/>
          </Node>
          <Node pos="r" depth="2" NCoef="0" IVar="-1" Cut="0.0000000000000000e+00" cType="1" res="-9.9000000000000000e+01" rms="0.0000000000000000e+00" purity="1.3207224011421204e-01" nType="-1"/>
        </Node>
        <Node pos="r" depth="1" NCoef="0" IVar="-1" Cut="0.0000000000000000e+00" cType="1" res="-9.9000000000000000e+01" rms="0.0000000000000000e+00" purity="1.2043874710798264e-01" nType="-1"/>
      </Node>
    </BinaryTree>
    <BinaryTree type="DecisionTree" boostWeight="2.5410126280141188e-01" itree="33">
      <Node pos="s" depth="0" NCoef="0" IVar="12" Cut="6.1904746294021606e-01" cType="0" res="-9.9000000000000000e+01" rms="0.0000000000000000e+00" purity="4.4790229201316833e-01" nType="0">
        <Node pos="l" depth="1" NCoef="0" IVar="-1" Cut="0.0000000000000000e+00" cType="1" res="-9.9000000000000000e+01" rms="0.0000000000000000e+00" purity="6.9482034444808960e-01" nType="1"/>
        <Node pos="r" depth="1" NCoef="0" IVar="-1" Cut="-1.2997938394546509e+00" cType="0" res="-9.9000000000000000e+01" rms="0.0000000000000000e+00" purity="3.9165887236595154e-01" nType="-1"/>
      </Node>
    </BinaryTree>
    <BinaryTree type="DecisionTree" boostWeight="3.2971115712248816e-01" itree="34">
      <Node pos="s" depth="0" NCoef="0" IVar="13" Cut="2.8577512502670288e-01" cType="1" res="-9.9000000000000000e+01" rms="0.0000000000000000e+00" purity="4.7235152125358582e-01" nType="0">
        <Node pos="l" depth="1" NCoef="0" IVar="19" Cut="-9.5841318368911743e-01" cType="0" res="-9.9000000000000000e+01" rms="0.0000000000000000e+00" purity="5.1696884632110596e-01" nType="0">
          <Node pos="l" depth="2" NCoef="0" IVar="13" Cut="-9.1142410039901733e-01" cType="0" res="-9.9000000000000000e+01" rms="0.0000000000000000e+00" purity="5.7595157623291016e-01" nType="0">
            <Node pos="l" depth="3" NCoef="0" IVar="-1" Cut="0.0000000000000000e+00" cType="1" res="-9.9000000000000000e+01" rms="0.0000000000000000e+00" purity="6.1402177810668945e-01" nType="1"/>
            <Node pos="r" depth="3" NCoef="0" IVar="-1" Cut="0.0000000000000000e+00" cType="1" res="-9.9000000000000000e+01" rms="0.0000000000000000e+00" purity="1.8121637403964996e-01" nType="-1"/>
          </Node>
          <Node pos="r" depth="2" NCoef="0" IVar="-1" Cut="2.3809860646724701e-01" cType="0" res="-9.9000000000000000e+01" rms="0.0000000000000000e+00" purity="3.2850217819213867e-01" nType="-1"/>
        </Node>
        <Node pos="r" depth="1" NCoef="0" IVar="-1" Cut="8.5712087154388428e-01" cType="1" res="-9.9000000000000000e+01" rms="0.0000000000000000e+00" purity="2.5448614358901978e-01" nType="-1"/>
      </Node>
    </BinaryTree>
    <BinaryTree type="DecisionTree" boostWeight="3.5465680260248583e-01" itree="35">
      <Node pos="s" depth="0" NCoef="0" IVar="14" Cut="2.8783810138702393e+00" cType="0" res="-9.9000000000000000e+01" rms="0.0000000000000000e+00" purity="4.4215717911720276e-01" nType="0">
        <Node pos="l" depth="1" NCoef="0" IVar="-1" Cut="0.0000000000000000e+00" cType="1" res="-9.9000000000000000e+01" rms="0.0000000000000000e+00" purity="7.0494890213012695e-01" nType="1"/>
        <Node pos="r" depth="1" NCoef="0" IVar="0" Cut="-6.2156496047973633e+00" cType="1" res="-9.9000000000000000e+01" rms="0.0000000000000000e+00" purity="3.9527782797813416e-01" nType="0">
          <Node pos="l" depth="2" NCoef="0" IVar="-1" Cut="0.0000000000000000e+00" cType="1" res="-9.9000000000000000e+01" rms="0.0000000000000000e+00" purity="6.1110299825668335e-01" nType="1"/>
          <Node pos="r" depth="2" NCoef="0" IVar="10" Cut="2.3815121501684189e-02" cType="1" res="-9.9000000000000000e+01" rms="0.0000000000000000e+00" purity="3.3254987001419067e-01" nType="0">
            <Node pos="l" depth="3" NCoef="0" IVar="-1" Cut="0.0000000000000000e+00" cType="1" res="-9.9000000000000000e+01" rms="0.0000000000000000e+00" purity="5.2872192859649658e-01" nType="1"/>
            <Node pos="r" depth="3" NCoef="0" IVar="-1" Cut="0.0000000000000000e+00" cType="1" res="-9.9000000000000000e+01" rms="0.0000000000000000e+00" purity="2.8074443340301514e-01" nType="-1"/>
          </Node>
        </Node>
      </Node>
    </BinaryTree>
    <BinaryTree type="DecisionTree" boostWeight="3.1544347163319092e-01" itree="36">
      <Node pos="s" depth="0" NCoef="0" IVar="20" Cut="3.4666667938232422e+01" cType="1" res="-9.9000000000000000e+01" rms="0.0000000000000000e+00" purity="4.3889829516410828e-01" nType="0">
        <Node pos="l" depth="1" NCoef="0" IVar="21" Cut="2.8570256233215332e+00" cType="1" res="-9.9000000000000000e+01" rms="0.0000000000000000e+00" purity="4.7489294409751892e-01" nType="0">
          <Node pos="l" depth="2" NCoef="0" IVar="1" Cut="2.2552273273468018e+00" cType="1" res="-9.9000000000000000e+01" rms="0.0000000000000000e+00" purity="5.3682941198348999e-01" nType="0">
            <Node pos="l" depth="3" NCoef="0" IVar="-1" Cut="0.0000000000000000e+00" cType="1" res="-9.9000000000000000e+01" rms="0.0000000000000000e+00" purity="5.8740949630737305e-01" nType="1"/>
            <Node pos="r" depth="3" NCoef="0" IVar="-1" Cut="0.0000000000000000e+00" cType="1" res="-9.9000000000000000e+01" rms="0.0000000000000000e+00" purity="3.1445834040641785e-01" nType="-1"/>
          </Node>
          <Node pos="r" depth="2" NCoef="0" IVar="-1" Cut="2.3809550702571869e-01" cType="0" res="-9.9000000000000000e+01" rms="0.0000000000000000e+00" purity="3.0725011229515076e-01" nType="-1"/>
        </Node>
        <Node pos="r" depth="1" NCoef="0" IVar="-1" Cut="5.8526104688644409e-01" cType="1" res="-9.9000000000000000e+01" rms="0.0000000000000000e+00" purity="1.7327789962291718e-01" nType="-1"/>
      </Node>
    </BinaryTree>
    <BinaryTree type="DecisionTree" boostWeight="3.6537097561445570e-01" itree="37">
      <Node pos="s" depth="0" NCoef="0" IVar="11" Cut="6.1904764175415039e-01" cType="0" res="-9.9000000000000000e+01" rms="0.0000000000000000e+00" purity="5.0703179836273193e-01" nType="0">
        <Node pos="l" depth="1" NCoef="0" IVar="20" Cut="2.5809524536132812e+01" cType="1" res="-9.9000000000000000e+01" rms="0.0000000000000000e+00" purity="6.8977189064025879e-01" nType="0">
          <Node pos="l" depth="2" NCoef="0" IVar="-1" Cut="8.7303692102432251e-01" cType="1" res="-9.9000000000000000e+01" rms="0.0000000000000000e+00" purity="7.8775209188461304e-01" nType="1"/>
          <Node pos="r" depth="2" NCoef="0" IVar="-1" Cut="0.0000000000000000e+00" cType="1" res="-9.9000000000000000e+01" rms="0.0000000000000000e+00" purity="4.8701709508895874e-01" nType="-1"/>
        </Node>
        <Node pos="r" depth="1" NCoef="0" IVar="12" Cut="4.7614399343729019e-02" cType="0" res="-9.9000000000000000e+01" rms="0.0000000000000000e+00" purity="4.4243159890174866e-01" nType="0">
          <Node pos="l" depth="2" NCoef="0" IVar="11" Cut="-2.2925786674022675e-01" cType="1" res="-9.9000000000000000e+01" rms="0.0000000000000000e+00" purity="5.1434344053268433e-01" nType="0">
            <Node pos="l" depth="3" NCoef="0" IVar="-1" Cut="0.0000000000000000e+00" cType="1" res="-9.9000000000000000e+01" rms="0.0000000000000000e+00" purity="6.5482664108276367e-01" nType="1"/>
            <Node pos="r" depth="3" NCoef="0" IVar="-1" Cut="0.0000000000000000e+00" cType="1" res="-9.9000000000000000e+01" rms="0.0000000000000000e+00" purity="3.7677651643753052e-01" nType="-1"/>
          </Node>
          <Node pos="r" depth="2" NCoef="0" IVar="11" Cut="2.3351310193538666e-01" cType="0" res="-9.9000000000000000e+01" rms="0.0000000000000000e+00" purity="3.2876971364021301e-01" nType="0">
            <Node pos="l" depth="3" NCoef="0" IVar="-1" Cut="0.0000000000000000e+00" cType="1" res="-9.9000000000000000e+01" rms="0.0000000000000000e+00" purity="6.1683422327041626e-01" nType="1"/>
            <Node pos="r" depth="3" NCoef="0" IVar="-1" Cut="0.0000000000000000e+00" cType="1" res="-9.9000000000000000e+01" rms="0.0000000000000000e+00" purity="2.7001112699508667e-01" nType="-1"/>
          </Node>
        </Node>
      </Node>
    </BinaryTree>
    <BinaryTree type="DecisionTree" boostWeight="3.6624344641500822e-01" itree="38">
      <Node pos="s" depth="0" NCoef="0" IVar="11" Cut="1.4285714924335480e-01" cType="0" res="-9.9000000000000000e+01" rms="0.0000000000000000e+00" purity="4.8903983831405640e-01" nType="0">
        <Node pos="l" depth="1" NCoef="0" IVar="16" Cut="2.1474466323852539e+00" cType="0" res="-9.9000000000000000e+01" rms="0.0000000000000000e+00" purity="6.2855082750320435e-01" nType="0">
          <Node pos="l" depth="2" NCoef="0" IVar="-1" Cut="0.0000000000000000e+00" cType="1" res="-9.9000000000000000e+01" rms="0.0000000000000000e+00" purity="8.0023580789566040e-01" nType="1"/>
          <Node pos="r" depth="2" NCoef="0" IVar="11" Cut="6.3269692659378052e-01" cType="0" res="-9.9000000000000000e+01" rms="0.0000000000000000e+00" purity="5.4446083307266235e-01" nType="0">
            <Node pos="l" depth="3" NCoef="0" IVar="-1" Cut="0.0000000000000000e+00" cType="1" res="-9.9000000000000000e+01" rms="0.0000000000000000e+00" purity="6.2375855445861816e-01" nType="1"/>
            <Node pos="r" depth="3" NCoef="0" IVar="-1" Cut="0.0000000000000000e+00" cType="1" res="-9.9000000000000000e+01" rms="0.0000000000000000e+00" purity="3.2920262217521667e-01" nType="-1"/>
          </Node>
        </Node>
        <Node pos="r" depth="1" NCoef="0" IVar="14" Cut="-1.9148067235946655e+00" cType="1" res="-9.9000000000000000e+01" rms="0.0000000000000000e+00" purity="3.8008832931518555e-01" nType="0">
          <Node pos="l" depth="2" NCoef="0" IVar="-1" Cut="0.0000000000000000e+00" cType="1" res="-9.9000000000000000e+01" rms="0.0000000000000000e+00" purity="5.9777307510375977e-01" nType="1"/>
          <Node pos="r" depth="2" NCoef="0" IVar="14" Cut="5.9866696596145630e-01" cType="0" res="-9.9000000000000000e+01" rms="0.0000000000000000e+00" purity="3.2525554299354553e-01" nType="0">
            <Node pos="l" depth="3" NCoef="0" IVar="-1" Cut="0.0000000000000000e+00" cType="1" res="-9.9000000000000000e+01" rms="0.0000000000000000e+00" purity="5.0662642717361450e-01" nType="1"/>
            <Node pos="r" depth="3" NCoef="0" IVar="-1" Cut="0.0000000000000000e+00" cType="1" res="-9.9000000000000000e+01" rms="0.0000000000000000e+00" purity="1.9444295763969421e-01" nType="-1"/>
          </Node>
        </Node>
      </Node>
    </BinaryTree>
    <BinaryTree type="DecisionTree" boostWeight="3.1500511377521800e-01" itree="39">
      <Node pos="s" depth="0" NCoef="0" IVar="20" Cut="2.7714284896850586e+01" cType="1" res="-9.9000000000000000e+01" rms="0.0000000000000000e+00" purity="4.5067462325096130e-01" nType="0">
        <Node pos="l" depth="1" NCoef="0" IVar="19" Cut="3.1167764663696289e+00" cType="1" res="-9.9000000000000000e+01" rms="0.0000000000000000e+00" purity="5.0483822822570801e-01" nType="0">
          <Node pos="l" depth="2" NCoef="0" IVar="19" Cut="-7.8292405605316162e-01" cType="0" res="-9.9000000000000000e+01" rms="0.0000000000000000e+00" purity="5.4007804393768311e-01" nType="0">
            <Node pos="l" depth="3" NCoef="0" IVar="-1" Cut="0.0000000000000000e+00" cType="1" res="-9.9000000000000000e+01" rms="0.0000000000000000e+00" purity="6.0951501131057739e-01" nType="1"/>
            <Node pos="r" depth="3" NCoef="0" IVar="-1" Cut="0.0000000000000000e+00" cType="1" res="-9.9000000000000000e+01" rms="0.0000000000000000e+00" purity="3.5740113258361816e-01" nType="-1"/>
          </Node>
          <Node pos="r" depth="2" NCoef="0" IVar="-1" Cut="0.0000000000000000e+00" cType="1" res="-9.9000000000000000e+01" rms="0.0000000000000000e+00" purity="2.4403424561023712e-01" nType="-1"/>
        </Node>
        <Node pos="r" depth="1" NCoef="0" IVar="16" Cut="1.8449043035507202e+00" cType="0" res="-9.9000000000000000e+01" rms="0.0000000000000000e+00" purity="3.1017988920211792e-01" nType="0">
          <Node pos="l" depth="2" NCoef="0" IVar="-1" Cut="0.0000000000000000e+00" cType="1" res="-9.9000000000000000e+01" rms="0.0000000000000000e+00" purity="5.1418012380599976e-01" nType="1"/>
          <Node pos="r" depth="2" NCoef="0" IVar="-1" Cut="-2.8595122694969177e-01" cType="0" res="-9.9000000000000000e+01" rms="0.0000000000000000e+00" purity="2.2851026058197021e-01" nType="-1"/>
        </Node>
      </Node>
    </BinaryTree>
    <BinaryTree type="DecisionTree" boostWeight="3.2622954759737832e-01" itree="40">
      <Node pos="s" depth="0" NCoef="0" IVar="20" Cut="3.5333332061767578e+01" cType="1" res="-9.9000000000000000e+01" rms="0.0000000000000000e+00" purity="4.3758121132850647e-01" nType="0">
        <Node pos="l" depth="1" NCoef="0" IVar="11" Cut="2.3809523880481720e-01" cType="0" res="-9.9000000000000000e+01" rms="0.0000000000000000e+00" purity="4.6750354766845703e-01" nType="0">
          <Node pos="l" depth="2" NCoef="0" IVar="16" Cut="1.3163950443267822e+00" cType="0" res="-9.9000000000000000e+01" rms="0.0000000000000000e+00" purity="5.7669967412948608e-01" nType="0">
            <Node pos="l" depth="3" NCoef="0" IVar="-1" Cut="0.0000000000000000e+00" cType="1" res="-9.9000000000000000e+01" rms="0.0000000000000000e+00" purity="6.7258900403976440e-01" nType="1"/>
            <Node pos="r" depth="3" NCoef="0" IVar="-1" Cut="0.0000000000000000e+00" cType="1" res="-9.9000000000000000e+01" rms="0.0000000000000000e+00" purity="2.7776733040809631e-01" nType="-1"/>
          </Node>
          <Node pos="r" depth="2" NCoef="0" IVar="-1" Cut="2.0923845767974854e+00" cType="0" res="-9.9000000000000000e+01" rms="0.0000000000000000e+00" purity="3.9527228474617004e-01" nType="-1"/>
        </Node>
        <Node pos="r" depth="1" NCoef="0" IVar="-1" Cut="0.0000000000000000e+00" cType="1" res="-9.9000000000000000e+01" rms="0.0000000000000000e+00" purity="1.1781276762485504e-01" nType="-1"/>
      </Node>
    </BinaryTree>
    <BinaryTree type="DecisionTree" boostWeight="2.8551008180361931e-01" itree="41">
      <Node pos="s" depth="0" NCoef="0" IVar="17" Cut="2.3483216762542725e+00" cType="0" res="-9.9000000000000000e+01" rms="0.0000000000000000e+00" purity="4.3168845772743225e-01" nType="0">
        <Node pos="l" depth="1" NCoef="0" IVar="1" Cut="2.1466655731201172e+00" cType="0" res="-9.9000000000000000e+01" rms="0.0000000000000000e+00" purity="4.5788884162902832e-01" nType="0">
          <Node pos="l" depth="2" NCoef="0" IVar="12" Cut="4.7618981450796127e-02" cType="0" res="-9.9000000000000000e+01" rms="0.0000000000000000e+00" purity="5.1024401187896729e-01" nType="0">
            <Node pos="l" depth="3" NCoef="0" IVar="-1" Cut="0.0000000000000000e+00" cType="1" res="-9.9000000000000000e+01" rms="0.0000000000000000e+00" purity="5.6998378038406372e-01" nType="1"/>
            <Node pos="r" depth="3" NCoef="0" IVar="-1" Cut="0.0000000000000000e+00" cType="1" res="-9.9000000000000000e+01" rms="0.0000000000000000e+00" purity="3.6079853773117065e-01" nType="-1"/>
          </Node>
          <Node pos="r" depth="2" NCoef="0" IVar="-1" Cut="2.8577330708503723e-01" cType="1" res="-9.9000000000000000e+01" rms="0.0000000000000000e+00" purity="2.8212204575538635e-01" nType="-1"/>
        </Node>
        <Node pos="r" depth="1" NCoef="0" IVar="-1" Cut="0.0000000000000000e+00" cType="1" res="-9.9000000000000000e+01" rms="0.0000000000000000e+00" purity="1.4043375849723816e-01" nType="-1"/>
      </Node>
    </BinaryTree>
    <BinaryTree type="DecisionTree" boostWeight="4.1968918146476147e-01" itree="42">
      <Node pos="s" depth="0" NCoef="0" IVar="10" Cut="4.7617781907320023e-02" cType="1" res="-9.9000000000000000e+01" rms="0.0000000000000000e+00" purity="4.4652694463729858e-01" nType="0">
        <Node pos="l" depth="1" NCoef="0" IVar="5" Cut="3.0865774154663086e+00" cType="1" res="-9.9000000000000000e+01" rms="0.0000000000000000e+00" purity="5.9268867969512939e-01" nType="0">
          <Node pos="l" depth="2" NCoef="0" IVar="-1" Cut="0.0000000000000000e+00" cType="1" res="-9.9000000000000000e+01" rms="0.0000000000000000e+00" purity="6.8437725305557251e-01" nType="1"/>
          <Node pos="r" depth="2" NCoef="0" IVar="-1" Cut="0.0000000000000000e+00" cType="1" res="-9.9000000000000000e+01" rms="0.0000000000000000e+00" purity="3.4932300448417664e-01" nType="-1"/>
        </Node>
        <Node pos="r" depth="1" NCoef="0" IVar="16" Cut="1.9209764003753662e+00" cType="0" res="-9.9000000000000000e+01" rms="0.0000000000000000e+00" purity="3.7214666604995728e-01" nType="0">
          <Node pos="l" depth="2" NCoef="0" IVar="9" Cut="1.3630440831184387e-01" cType="0" res="-9.9000000000000000e+01" rms="0.0000000000000000e+00" purity="5.6447768211364746e-01" nType="0">
            <Node pos="l" depth="3" NCoef="0" IVar="-1" Cut="0.0000000000000000e+00" cType="1" res="-9.9000000000000000e+01" rms="0.0000000000000000e+00" purity="6.9845616817474365e-01" nType="1"/>
            <Node pos="r" depth="3" NCoef="0" IVar="-1" Cut="0.0000000000000000e+00" cType="1" res="-9.9000000000000000e+01" rms="0.0000000000000000e+00" purity="3.6713325977325439e-01" nType="-1"/>
          </Node>
          <Node pos="r" depth="2" NCoef="0" IVar="2" Cut="2.8421597480773926e+00" cType="0" res="-9.9000000000000000e+01" rms="0.0000000000000000e+00" purity="2.7521544694900513e-01" nType="0">
            <Node pos="l" depth="3" NCoef="0" IVar="-1" Cut="0.0000000000000000e+00" cType="1" res="-9.9000000000000000e+01" rms="0.0000000000000000e+00" purity="5.1372879743576050e-01" nType="1"/>
            <Node pos="r" depth="3" NCoef="0" IVar="-1" Cut="0.0000000000000000e+00" cType="1" res="-9.9000000000000000e+01" rms="0.0000000000000000e+00" purity="2.2726976871490479e-01" nType="-1"/>
          </Node>
        </Node>
      </Node>
    </BinaryTree>
    <BinaryTree type="DecisionTree" boostWeight="2.7100937773203826e-01" itree="43">
      <Node pos="s" depth="0" NCoef="0" IVar="20" Cut="3.8714286804199219e+01" cType="1" res="-9.9000000000000000e+01" rms="0.0000000000000000e+00" purity="4.7734087705612183e-01" nType="0">
        <Node pos="l" depth="1" NCoef="0" IVar="21" Cut="3.8094279766082764e+00" cType="1" res="-9.9000000000000000e+01" rms="0.0000000000000000e+00" purity="4.9884688854217529e-01" nType="0">
          <Node pos="l" depth="2" NCoef="0" IVar="1" Cut="2.2914123535156250e+00" cType="1" res="-9.9000000000000000e+01" rms="0.0000000000000000e+00" purity="5.4837763309478760e-01" nType="0">
            <Node pos="l" depth="3" NCoef="0" IVar="-1" Cut="0.0000000000000000e+00" cType="1" res="-9.9000000000000000e+01" rms="0.0000000000000000e+00" purity="5.8685940504074097e-01" nType="1"/>
            <Node pos="r" depth="3" NCoef="0" IVar="-1" Cut="0.0000000000000000e+00" cType="1" res="-9.9000000000000000e+01" rms="0.0000000000000000e+00" purity="3.2483524084091187e-01" nType="-1"/>
          </Node>
          <Node pos="r" depth="2" NCoef="0" IVar="-1" Cut="1.4286093413829803e-01" cType="0" res="-9.9000000000000000e+01" rms="0.0000000000000000e+00" purity="3.2001838088035583e-01" nType="-1"/>
        </Node>
        <Node pos="r" depth="1" NCoef="0" IVar="-1" Cut="0.0000000000000000e+00" cType="1" res="-9.9000000000000000e+01" rms="0.0000000000000000e+00" purity="1.1111764609813690e-01" nType="-1"/>
      </Node>
    </BinaryTree>
    <BinaryTree type="DecisionTree" boostWeight="2.4899289395731639e-01" itree="44">
      <Node pos="s" depth="0" NCoef="0" IVar="3" Cut="1.2380783557891846e+00" cType="1" res="-9.9000000000000000e+01" rms="0.0000000000000000e+00" purity="4.5649155974388123e-01" nType="0">
        <Node pos="l" depth="1" NCoef="0" IVar="18" Cut="1.8571429252624512e+00" cType="1" res="-9.9000000000000000e+01" rms="0.0000000000000000e+00" purity="4.8798877000808716e-01" nType="0">
          <Node pos="l" depth="2" NCoef="0" IVar="12" Cut="2.3809725046157837e-01" cType="0" res="-9.9000000000000000e+01" rms="0.0000000000000000e+00" purity="5.5389118194580078e-01" nType="0">
            <Node pos="l" depth="3" NCoef="0" IVar="-1" Cut="0.0000000000000000e+00" cType="1" res="-9.9000000000000000e+01" rms="0.0000000000000000e+00" purity="6.4463925361633301e-01" nType="1"/>
            <Node pos="r" depth="3" NCoef="0" IVar="-1" Cut="0.0000000000000000e+00" cType="1" res="-9.9000000000000000e+01" rms="0.0000000000000000e+00" purity="4.7471287846565247e-01" nType="-1"/>
          </Node>
          <Node pos="r" depth="2" NCoef="0" IVar="-1" Cut="7.2751116752624512e-01" cType="0" res="-9.9000000000000000e+01" rms="0.0000000000000000e+00" purity="3.5840266942977905e-01" nType="-1"/>
        </Node>
        <Node pos="r" depth="1" NCoef="0" IVar="-1" Cut="3.3333334326744080e-01" cType="0" res="-9.9000000000000000e+01" rms="0.0000000000000000e+00" purity="2.2916454076766968e-01" nType="-1"/>
      </Node>
    </BinaryTree>
    <BinaryTree type="DecisionTree" boostWeight="3.3017747747003501e-01" itree="45">
      <Node pos="s" depth="0" NCoef="0" IVar="14" Cut="-3.4106562137603760e+00" cType="1" res="-9.9000000000000000e+01" rms="0.0000000000000000e+00" purity="4.3593060970306396e-01" nType="0">
        <Node pos="l" depth="1" NCoef="0" IVar="-1" Cut="0.0000000000000000e+00" cType="1" res="-9.9000000000000000e+01" rms="0.0000000000000000e+00" purity="6.9556045532226562e-01" nType="1"/>
        <Node pos="r" depth="1" NCoef="0" IVar="8" Cut="2.4349019527435303e+00" cType="0" res="-9.9000000000000000e+01" rms="0.0000000000000000e+00" purity="3.9842024445533752e-01" nType="0">
          <Node pos="l" depth="2" NCoef="0" IVar="-1" Cut="0.0000000000000000e+00" cType="1" res="-9.9000000000000000e+01" rms="0.0000000000000000e+00" purity="6.7457365989685059e-01" nType="1"/>
          <Node pos="r" depth="2" NCoef="0" IVar="20" Cut="1.5428571701049805e+01" cType="1" res="-9.9000000000000000e+01" rms="0.0000000000000000e+00" purity="3.6971741914749146e-01" nType="0">
            <Node pos="l" depth="3" NCoef="0" IVar="-1" Cut="0.0000000000000000e+00" cType="1" res="-9.9000000000000000e+01" rms="0.0000000000000000e+00" purity="5.7551902532577515e-01" nType="1"/>
            <Node pos="r" depth="3" NCoef="0" IVar="-1" Cut="0.0000000000000000e+00" cType="1" res="-9.9000000000000000e+01" rms="0.0000000000000000e+00" purity="3.3519360423088074e-01" nType="-1"/>
          </Node>
        </Node>
      </Node>
    </BinaryTree>
    <BinaryTree type="DecisionTree" boostWeight="3.4695440115822701e-01" itree="46">
      <Node pos="s" depth="0" NCoef="0" IVar="14" Cut="4.2240434885025024e-01" cType="0" res="-9.9000000000000000e+01" rms="0.0000000000000000e+00" purity="5.1061391830444336e-01" nType="0">
        <Node pos="l" depth="1" NCoef="0" IVar="-1" Cut="1.2856446504592896e+00" cType="0" res="-9.9000000000000000e+01" rms="0.0000000000000000e+00" purity="6.6826719045639038e-01" nType="1"/>
        <Node pos="r" depth="1" NCoef="0" IVar="14" Cut="-8.3017635345458984e-01" cType="1" res="-9.9000000000000000e+01" rms="0.0000000000000000e+00" purity="4.4854426383972168e-01" nType="0">
          <Node pos="l" depth="2" NCoef="0" IVar="10" Cut="2.1428678929805756e-01" cType="1" res="-9.9000000000000000e+01" rms="0.0000000000000000e+00" purity="6.8707424402236938e-01" nType="0">
            <Node pos="l" depth="3" NCoef="0" IVar="-1" Cut="0.0000000000000000e+00" cType="1" res="-9.9000000000000000e+01" rms="0.0000000000000000e+00" purity="7.5989800691604614e-01" nType="1"/>
            <Node pos="r" depth="3" NCoef="0" IVar="-1" Cut="0.0000000000000000e+00" cType="1" res="-9.9000000000000000e+01" rms="0.0000000000000000e+00" purity="4.6962374448776245e-01" nType="-1"/>
          </Node>
          <Node pos="r" depth="2" NCoef="0" IVar="-1" Cut="2.6389024257659912e+00" cType="1" res="-9.9000000000000000e+01" rms="0.0000000000000000e+00" purity="3.4879967570304871e-01" nType="-1"/>
        </Node>
      </Node>
    </BinaryTree>
    <BinaryTree type="DecisionTree" boostWeight="3.6220796703930408e-01" itree="47">
      <Node pos="s" depth="0" NCoef="0" IVar="3" Cut="-1.0476143360137939e+00" cType="0" res="-9.9000000000000000e+01" rms="0.0000000000000000e+00" purity="5.0153309106826782e-01" nType="0">
        <Node pos="l" depth="1" NCoef="0" IVar="19" Cut="1.6768181324005127e+00" cType="0" res="-9.9000000000000000e+01" rms="0.0000000000000000e+00" purity="5.3929477930068970e-01" nType="0">
          <Node pos="l" depth="2" NCoef="0" IVar="19" Cut="2.8457732200622559e+00" cType="1" res="-9.9000000000000000e+01" rms="0.0000000000000000e+00" purity="6.4289975166320801e-01" nType="0">
            <Node pos="l" depth="3" NCoef="0" IVar="-1" Cut="0.0000000000000000e+00" cType="1" res="-9.9000000000000000e+01" rms="0.0000000000000000e+00" purity="7.2225683927536011e-01" nType="1"/>
            <Node pos="r" depth="3" NCoef="0" IVar="-1" Cut="0.0000000000000000e+00" cType="1" res="-9.9000000000000000e+01" rms="0.0000000000000000e+00" purity="3.7980979681015015e-01" nType="-1"/>
          </Node>
          <Node pos="r" depth="2" NCoef="0" IVar="11" Cut="6.1904758214950562e-01" cType="0" res="-9.9000000000000000e+01" rms="0.0000000000000000e+00" purity="4.3488565087318420e-01" nType="0">
            <Node pos="l" depth="3" NCoef="0" IVar="-1" Cut="0.0000000000000000e+00" cType="1" res="-9.9000000000000000e+01" rms="0.0000000000000000e+00" purity="6.1132019758224487e-01" nType="1"/>
            <Node pos="r" depth="3" NCoef="0" IVar="-1" Cut="0.0000000000000000e+00" cType="1" res="-9.9000000000000000e+01" rms="0.0000000000000000e+00" purity="3.6449784040451050e-01" nType="-1"/>
          </Node>
        </Node>
        <Node pos="r" depth="1" NCoef="0" IVar="-1" Cut="8.6618604660034180e+00" cType="1" res="-9.9000000000000000e+01" rms="0.0000000000000000e+00" purity="2.6472514867782593e-01" nType="-1"/>
      </Node>
    </BinaryTree>
    <BinaryTree type="DecisionTree" boostWeight="3.1825654153646277e-01" itree="48">
      <Node pos="s" depth="0" NCoef="0" IVar="19" Cut="1.2544648647308350e+00" cType="0" res="-9.9000000000000000e+01" rms="0.0000000000000000e+00" purity="4.7549951076507568e-01" nType="0">
        <Node pos="l" depth="1" NCoef="0" IVar="1" Cut="2.1647539138793945e+00" cType="0" res="-9.9000000000000000e+01" rms="0.0000000000000000e+00" purity="5.4256778955459595e-01" nType="0">
          <Node pos="l" depth="2" NCoef="0" IVar="19" Cut="2.6741559505462646e+00" cType="1" res="-9.9000000000000000e+01" rms="0.0000000000000000e+00" purity="6.0428994894027710e-01" nType="0">
            <Node pos="l" depth="3" NCoef="0" IVar="-1" Cut="0.0000000000000000e+00" cType="1" res="-9.9000000000000000e+01" rms="0.0000000000000000e+00" purity="6.7194682359695435e-01" nType="1"/>
            <Node pos="r" depth="3" NCoef="0" IVar="-1" Cut="0.0000000000000000e+00" cType="1" res="-9.9000000000000000e+01" rms="0.0000000000000000e+00" purity="4.0545848011970520e-01" nType="-1"/>
          </Node>
          <Node pos="r" depth="2" NCoef="0" IVar="-1" Cut="2.2047618865966797e+01" cType="1" res="-9.9000000000000000e+01" rms="0.0000000000000000e+00" purity="3.6581286787986755e-01" nType="-1"/>
        </Node>
        <Node pos="r" depth="1" NCoef="0" IVar="16" Cut="1.5341689586639404e+00" cType="0" res="-9.9000000000000000e+01" rms="0.0000000000000000e+00" purity="3.6182960867881775e-01" nType="0">
          <Node pos="l" depth="2" NCoef="0" IVar="-1" Cut="0.0000000000000000e+00" cType="1" res="-9.9000000000000000e+01" rms="0.0000000000000000e+00" purity="5.2928543090820312e-01" nType="1"/>
          <Node pos="r" depth="2" NCoef="0" IVar="-1" Cut="1.5041528642177582e-01" cType="0" res="-9.9000000000000000e+01" rms="0.0000000000000000e+00" purity="2.2281457483768463e-01" nType="-1"/>
        </Node>
      </Node>
    </BinaryTree>
    <BinaryTree type="DecisionTree" boostWeight="3.0817361106451896e-01" itree="49">
      <Node pos="s" depth="0" NCoef="0" IVar="8" Cut="-2.4367246627807617e+00" cType="1" res="-9.9000000000000000e+01" rms="0.0000000000000000e+00" purity="4.6462169289588928e-01" nType="0">
        <Node pos="l" depth="1" NCoef="0" IVar="-1" Cut="0.0000000000000000e+00" cType="1" res="-9.9000000000000000e+01" rms="0.0000000000000000e+00" purity="7.7814596891403198e-01" nType="1"/>
        <Node pos="r" depth="1" NCoef="0" IVar="20" Cut="2.7714284896850586e+01" cType="1" res="-9.9000000000000000e+01" rms="0.0000000000000000e+00" purity="4.1610300540924072e-01" nType="0">
          <Node pos="l" depth="2" NCoef="0" IVar="17" Cut="1.0771600723266602e+01" cType="1" res="-9.9000000000000000e+01" rms="0.0000000000000000e+00" purity="4.6914973855018616e-01" nType="0">
            <Node pos="l" depth="3" NCoef="0" IVar="-1" Cut="0.0000000000000000e+00" cType="1" res="-9.9000000000000000e+01" rms="0.0000000000000000e+00" purity="5.5709719657897949e-01" nType="1"/>
            <Node pos="r" depth="3" NCoef="0" IVar="-1" Cut="0.0000000000000000e+00" cType="1" res="-9.9000000000000000e+01" rms="0.0000000000000000e+00" purity="3.5765561461448669e-01" nType="-1"/>
          </Node>
          <Node pos="r" depth="2" NCoef="0" IVar="-1" Cut="9.5241442322731018e-02" cType="1" res="-9.9000000000000000e+01" rms="0.0000000000000000e+00" purity="2.8383311629295349e-01" nType="-1"/>
        </Node>
      </Node>
    </BinaryTree>
    <BinaryTree type="DecisionTree" boostWeight="2.1881370936735792e-01" itree="50">
      <Node pos="s" depth="0" NCoef="0" IVar="17" Cut="2.3055408000946045e+00" cType="0" res="-9.9000000000000000e+01" rms="0.0000000000000000e+00" purity="5.0869530439376831e-01" nType="0">
        <Node pos="l" depth="1" NCoef="0" IVar="13" Cut="8.5714226961135864e-01" cType="1" res="-9.9000000000000000e+01" rms="0.0000000000000000e+00" purity="5.2912497520446777e-01" nType="0">
          <Node pos="l" depth="2" NCoef="0" IVar="3" Cut="-1.4285485744476318e+00" cType="0" res="-9.9000000000000000e+01" rms="0.0000000000000000e+00" purity="5.4946911334991455e-01" nType="0">
            <Node pos="l" depth="3" NCoef="0" IVar="-1" Cut="0.0000000000000000e+00" cType="1" res="-9.9000000000000000e+01" rms="0.0000000000000000e+00" purity="5.7055026292800903e-01" nType="1"/>
            <Node pos="r" depth="3" NCoef="0" IVar="-1" Cut="0.0000000000000000e+00" cType="1" res="-9.9000000000000000e+01" rms="0.0000000000000000e+00" purity="2.6790371537208557e-01" nType="-1"/>
          </Node>
          <Node pos="r" depth="2" NCoef="0" IVar="-1" Cut="0.0000000000000000e+00" cType="1" res="-9.9000000000000000e+01" rms="0.0000000000000000e+00" purity="2.0010261237621307e-01" nType="-1"/>
        </Node>
        <Node pos="r" depth="1" NCoef="0" IVar="-1" Cut="0.0000000000000000e+00" cType="1" res="-9.9000000000000000e+01" rms="0.0000000000000000e+00" purity="1.8022672832012177e-01" nType="-1"/>
      </Node>
    </BinaryTree>
    <BinaryTree type="DecisionTree" boostWeight="3.5212530622582444e-01" itree="51">
      <Node pos="s" depth="0" NCoef="0" IVar="10" Cut="7.1432135999202728e-02" cType="1" res="-9.9000000000000000e+01" rms="0.0000000000000000e+00" purity="4.8286458849906921e-01" nType="0">
        <Node pos="l" depth="1" NCoef="0" IVar="13" Cut="-2.8149995207786560e-01" cType="0" res="-9.9000000000000000e+01" rms="0.0000000000000000e+00" purity="5.9839373826980591e-01" nType="0">
          <Node pos="l" depth="2" NCoef="0" IVar="4" Cut="1.4666504859924316e+00" cType="1" res="-9.9000000000000000e+01" rms="0.0000000000000000e+00" purity="6.4987033605575562e-01" nType="0">
            <Node pos="l" depth="3" NCoef="0" IVar="-1" Cut="0.0000000000000000e+00" cType="1" res="-9.9000000000000000e+01" rms="0.0000000000000000e+00" purity="6.8740576505661011e-01" nType="1"/>
            <Node pos="r" depth="3" NCoef="0" IVar="-1" Cut="0.0000000000000000e+00" cType="1" res="-9.9000000000000000e+01" rms="0.0000000000000000e+00" purity="4.2621195316314697e-01" nType="-1"/>
          </Node>
          <Node pos="r" depth="2" NCoef="0" IVar="-1" Cut="0.0000000000000000e+00" cType="1" res="-9.9000000000000000e+01" rms="0.0000000000000000e+00" purity="3.5402622818946838e-01" nType="-1"/>
        </Node>
        <Node pos="r" depth="1" NCoef="0" IVar="5" Cut="2.1242821216583252e+00" cType="0" res="-9.9000000000000000e+01" rms="0.0000000000000000e+00" purity="3.8433513045310974e-01" nType="0">
          <Node pos="l" depth="2" NCoef="0" IVar="7" Cut="2.3116940259933472e-01" cType="0" res="-9.9000000000000000e+01" rms="0.0000000000000000e+00" purity="4.6221646666526794e-01" nType="0">
            <Node pos="l" depth="3" NCoef="0" IVar="-1" Cut="0.0000000000000000e+00" cType="1" res="-9.9000000000000000e+01" rms="0.0000000000000000e+00" purity="5.6232208013534546e-01" nType="1"/>
            <Node pos="r" depth="3" NCoef="0" IVar="-1" Cut="0.0000000000000000e+00" cType="1" res="-9.9000000000000000e+01" rms="0.0000000000000000e+00" purity="2.6058241724967957e-01" nType="-1"/>
          </Node>
          <Node pos="r" depth="2" NCoef="0" IVar="-1" Cut="2.3806166648864746e-01" cType="0" res="-9.9000000000000000e+01" rms="0.0000000000000000e+00" purity="2.2857069969177246e-01" nType="-1"/>
        </Node>
      </Node>
    </BinaryTree>
    <BinaryTree type="DecisionTree" boostWeight="2.5054242815036143e-01" itree="52">
      <Node pos="s" depth="0" NCoef="0" IVar="10" Cut="4.7617781907320023e-02" cType="1" res="-9.9000000000000000e+01" rms="0.0000000000000000e+00" purity="4.7987043857574463e-01" nType="0">
        <Node pos="l" depth="1" NCoef="0" IVar="9" Cut="8.3851820230484009e-01" cType="1" res="-9.9000000000000000e+01" rms="0.0000000000000000e+00" purity="6.3593840599060059e-01" nType="0">
          <Node pos="l" depth="2" NCoef="0" IVar="-1" Cut="1.6062432527542114e+00" cType="0" res="-9.9000000000000000e+01" rms="0.0000000000000000e+00" purity="7.1028512716293335e-01" nType="1"/>
          <Node pos="r" depth="2" NCoef="0" IVar="-1" Cut="0.0000000000000000e+00" cType="1" res="-9.9000000000000000e+01" rms="0.0000000000000000e+00" purity="4.6168681979179382e-01" nType="-1"/>
        </Node>
        <Node pos="r" depth="1" NCoef="0" IVar="-1" Cut="1.4044782519340515e-01" cType="0" res="-9.9000000000000000e+01" rms="0.0000000000000000e+00" purity="3.9657443761825562e-01" nType="-1"/>
      </Node>
    </BinaryTree>
    <BinaryTree type="DecisionTree" boostWeight="2.7853574817140941e-01" itree="53">
      <Node pos="s" depth="0" NCoef="0" IVar="18" Cut="1.8571429252624512e+00" cType="1" res="-9.9000000000000000e+01" rms="0.0000000000000000e+00" purity="5.1102608442306519e-01" nType="0">
